four 0.33375 0.44809 0.5475899999999999 0.21497 0.32637 0.70326 -0.9587200000000001 0.057798 -0.43454 -0.5532199999999999 -0.40481999999999996 -0.65793 -0.75076 0.58097 0.51968 -0.8660700000000001 -0.10026 -0.11609000000000001 -1.2668 -0.46131000000000005 -0.10421 0.13894 0.70448 -0.0040650999999999994 -0.56479 -0.99797 0.30126 -0.53745 -0.42073 -0.49521000000000004 3.9051 0.43253 0.017059 0.31489 1.2546 0.52463 0.46232 0.29622 -0.23879 0.12913 -0.7551899999999999 -0.065684 0.5259199999999999 0.20047 -0.15982000000000002 0.18293 -0.29966 -0.1926 -0.30174 -0.80437
sleep 0.5835100000000001 0.083661 -0.13939000000000001 -0.8276600000000001 -0.17556 -0.043828 0.35122 0.35502 0.52952 0.39971999999999996 0.31082 0.07900599999999999 0.18407 0.41413999999999995 0.93696 0.9008200000000001 -0.6680699999999999 -0.2177 -0.07531399999999999 -0.58204 -0.28963 1.6405 0.96226 0.28292 0.80467 -0.13471 -0.28345 -0.18936 1.1527 0.38487 2.4024 0.9273 -0.31132 -0.69609 -0.1434 0.56308 0.9709200000000001 -0.14662 1.5631 0.31495 -0.63698 -0.12055 -0.29838000000000003 1.4639 0.76165 0.02773 0.63513 -1.3668 -0.12374 0.76713
asian -0.74074 0.20735 -0.81685 1.2563 0.37723 -0.6095 -0.23429 -0.77283 -0.086403 -0.12797999999999998 0.65701 -0.51443 0.48983000000000004 0.58207 0.39869 0.42873 0.2217 -0.0092483 -0.90612 0.20228 0.56265 -0.18388 0.19612000000000002 0.20051 0.046845 -1.0698 0.22858 -0.60669 -0.8860600000000001 0.59733 3.3827 1.0895 0.71806 0.22366 -0.16809000000000002 -0.47253 -1.4069 0.047839 -0.9512200000000001 -0.8220299999999999 -1.2957 -0.21759 1.2672 -0.34606 1.5529 0.49754 0.092275 0.15742 0.38466999999999996 -0.77751
hate -0.8523299999999999 -0.14749 0.049936 -0.7872 0.19493 0.48928999999999995 0.34392 -0.61542 -0.37281 0.77186 -0.71914 -0.12972999999999998 -0.40985 -0.6533899999999999 0.9496100000000001 -0.49831000000000003 0.25442 0.049586 0.18927 -0.14948 -0.27686 0.32095 0.85855 1.0173 0.22241999999999998 -1.8237 -0.69343 -0.018455000000000003 1.4549 -1.1038 1.526 0.6984199999999999 -0.5901 -1.0475 -1.2981 -0.47258 -0.3198 -1.3484 -0.19307 0.18261 0.043868 -0.17222 0.16779000000000002 0.66191 0.71634 0.16960999999999998 -0.34744 -0.15155 -0.051676 0.29743
voter -0.9849 -0.16953 1.1601 -0.30446999999999996 0.026948000000000003 0.93327 -0.40712 0.0087008 0.8337600000000001 -0.024031999999999998 -0.42828 -1.7347 0.8512700000000001 -0.39602 -0.08863 -0.62237 -0.73797 -1.0001 0.7558 -1.0191 0.0656 -0.16369 0.36949 0.26811 0.14602 -1.1033 -0.91056 -0.23374 0.18897 0.69009 1.7476 0.75062 -1.0344 -1.9064 -0.5325300000000001 -0.33153 -0.24483000000000002 -0.39554 0.32587 -0.5340699999999999 -0.14501 0.043486000000000004 -1.0375 0.42796999999999996 -0.84806 -0.49475 -0.34974 0.86545 1.5959 -0.34592
bike -0.066264 0.63021 0.29175999999999996 0.09395 -0.86961 0.21041999999999997 -0.9703 -0.58522 1.2183 -0.47133 0.091659 -0.6772100000000001 -1.0019 -0.049824 0.32277 -0.25881 0.07404 1.3659999999999999 -0.4845 -1.7933 0.0080712 0.11598 -1.1639 1.147 0.71514 -0.63385 -0.21022 0.41422 0.80306 -0.43057 1.5576 0.77082 -0.61563 0.85375 0.25721 -0.11993 0.45093999999999995 0.46681999999999996 -0.25706 0.29834 -0.021799000000000002 -0.5043300000000001 0.02875 0.62155 0.23333 -1.1492 0.7851100000000001 -1.4157 0.71565 -0.08773500000000001
lord 0.54933 -0.10837000000000001 -1.0955 -0.47541000000000005 2.0872 -0.57409 0.23701 0.47555 0.004763 -0.76354 -0.71246 1.8315 -0.27094 -1.4849 -0.036377 0.25672 0.60525 -0.27187 -0.91206 0.032919 0.85587 0.18066 0.38097 0.10123 0.45287 -1.3344 -0.6031 -1.1351 -0.87775 0.30376 1.4215 -0.48462 -0.30674 -0.24264000000000002 0.93765 -0.081942 0.24684 -0.6895399999999999 -0.11685 -0.78254 0.1783 0.47413999999999995 -1.4938 -0.17657 -0.14473 1.0308 -0.65091 -1.8026 0.7327899999999999 -0.45703999999999995
worth 0.40404 0.38785 0.53397 0.050586 1.0592 -0.19771 -0.73748 -0.96401 0.10415999999999999 0.6430899999999999 -0.89613 0.24856999999999999 0.50513 -1.1126 1.5832 -0.4188 -0.29467 0.7420399999999999 -0.65587 -0.10727 1.0485 0.014371 -0.29496 -1.0849 -0.13987 -1.2670000000000001 -0.0055735 -0.15354 0.5994 -0.85121 2.957 0.34914 0.50162 1.0832 0.22413000000000002 -0.18622 -0.27975 0.3788 0.30698000000000003 -0.4996 0.11265 0.01807 1.1316 0.38495999999999997 -0.74253 0.087778 -0.71134 0.84719 -0.55723 0.30022
@ -1.5993 1.0154 0.86823 0.74326 -0.6387 -1.0276 0.6273 -0.19981 0.21436999999999998 -0.23789000000000002 -0.6048100000000001 -0.028558 -0.25056 -0.62944 0.49194 -0.26032 -0.4207 0.8013399999999999 0.012986000000000001 0.0038731 -0.54705 0.043031 1.2715 0.41507 0.86101 0.36551999999999996 -0.42333000000000004 -0.68 0.13677 0.096228 0.5361199999999999 0.18014000000000002 0.034983 0.7712899999999999 -0.37779 -0.41807 0.12283 0.099988 0.10874 0.083569 0.60652 -0.67219 -0.094889 0.51864 -0.29333000000000004 0.75998 0.039111 -0.54009 -0.37374 0.60712
digit -0.74834 0.13608 1.7798 0.019819999999999997 0.3385 0.23639000000000002 -0.11699000000000001 -0.13563 0.5594399999999999 0.33904 -0.0023915 -0.81328 -0.068993 0.037244 0.076918 -0.42367 -0.95765 -1.5972 0.09765399999999999 -0.22615 -0.56321 -2.4673 0.34424 0.060679 -0.038068 -0.28131 -0.87075 -0.44638999999999995 0.5956600000000001 0.63832 2.2941 1.2182 1.0031 0.5455800000000001 0.27045 -0.49861000000000005 -0.26248 0.26921999999999996 -0.32986 -0.14808 -0.66056 0.041773000000000005 -1.1358 0.39705999999999997 -0.43846 -0.53096 0.9944 0.5348 0.55629 0.022073
risk 1.0392 0.046584 0.4527 -0.76761 -0.21841 1.0486 0.57922 0.11241 0.9290299999999999 0.30664 0.5047699999999999 0.16649 -0.095533 -0.23039 0.49677 0.72215 0.44091 -0.5411199999999999 -0.15558 -0.30254000000000003 -0.21141 -0.25978 0.30421 -0.052493 -0.113 -1.6159 -0.21783000000000002 -0.20239000000000001 0.71319 0.8650700000000001 3.0954 0.80923 0.63845 -1.0486 -0.22155999999999998 -0.30308 -0.08431799999999999 -0.49396 0.59759 -0.61887 -0.75771 -0.17446 1.011 1.0075 0.86865 -0.48036999999999996 -0.024087 0.8259799999999999 0.79648 0.55488
rise 0.044808999999999995 0.063362 0.9883700000000001 -0.6772600000000001 0.43238000000000004 0.028154000000000002 -0.23711999999999997 -0.76836 -0.1495 0.67227 0.061665 -0.75608 -0.070184 -0.47797 0.6331899999999999 0.57105 -0.26784 -0.77291 -0.67165 -0.36772 0.62695 -0.89525 -0.33233 -0.64366 -0.045985000000000005 -0.95631 -0.7246600000000001 0.025314 0.41928000000000004 1.4533 3.1465 0.34773000000000004 0.96378 0.12541 -0.15012999999999999 -1.0811 -0.79748 -0.52166 0.26578 -0.39074000000000003 -1.1211 0.13213 0.21771 -0.30471 0.29063 -0.25495 0.25305 -0.063159 0.44799999999999995 -0.41928000000000004
dixit -0.82483 0.81328 0.35944 0.59823 -0.011578 0.36228 0.8913700000000001 0.35346 -0.39721999999999996 0.40016999999999997 -0.09640900000000001 1.031 0.20387 1.4431 0.20135 0.7834399999999999 0.8712700000000001 0.94168 1.1592 1.4264 1.1159999999999999 1.2755 0.92675 -0.67176 0.4902 0.6388 0.08557200000000001 0.52047 -0.6957399999999999 -0.16719 -0.86829 -0.72378 0.74232 0.27845 -0.25603000000000004 1.053 -0.093277 -0.50405 0.51257 -0.28551 -0.54628 0.43499 -0.0060457 -1.1806 -0.8955299999999999 0.043160000000000004 -0.67164 0.38800999999999997 -0.28793 -0.34949
ident -0.55557 0.060551999999999995 -0.050460000000000005 0.31645 -0.51451 -0.28341 0.43081 -1.3746 0.8451200000000001 0.11655 0.015083000000000001 0.60564 -0.32650999999999997 1.0172 -0.47728000000000004 0.27257 -0.65233 0.38416 0.29413 0.57663 0.064965 -0.63863 0.9873200000000001 1.1741 -0.41706000000000004 0.20640999999999998 -0.23509000000000002 0.8464799999999999 0.42805 0.52172 -0.20943 0.13865999999999998 -0.7021 -0.029133999999999997 1.311 1.0522 1.0029 -0.23088000000000003 -1.3176 0.3934 0.86993 0.45614 -1.4687 -0.087223 -0.9623700000000001 0.39476999999999995 1.2702 1.4458 1.0755 0.3635
jack -0.88123 0.82891 0.37694 0.44833 0.17482 1.1751 -1.1878 0.157 -0.61533 -0.64032 -0.54092 1.4348 -0.55619 0.32093 0.53486 0.083639 0.56714 0.69777 -0.59983 -0.5128199999999999 0.4184 0.56947 0.6034 0.23695 0.3483 -1.3877 0.15486 -0.063203 -0.00048972 -0.23701999999999998 1.2318 -0.7897 -0.22066999999999998 -0.1056 0.34888 0.12663 -0.3145 -0.3621 0.6127199999999999 -0.83193 0.20834 0.94545 -0.80578 -0.57852 0.59549 0.17848 -0.21406999999999998 -0.63185 -0.19555999999999998 0.7965300000000001
govern 0.41993 -0.96244 -0.23415999999999998 -0.25254 0.09923 0.064928 0.77617 0.13397 -0.26219000000000003 -0.30529 0.42291000000000006 0.24401 -0.086349 0.34119 -0.22838000000000003 1.0759 0.53552 -0.34368000000000004 1.4192 -0.16158 -0.18037 0.066952 0.192 0.33795 -0.0031644000000000004 -0.77466 -0.20706 -0.76893 0.12308 0.34136 1.7499 0.88836 -1.5327 -0.50237 -0.45138999999999996 -0.15132 -0.073518 0.51828 -0.36822 -0.22678 -0.7508699999999999 -0.4644 0.41996000000000006 0.76613 -1.5087 0.5572699999999999 -0.57419 0.027339 0.17531 -0.010685
affect 0.5184 -0.044277 -0.083688 0.53393 -0.10687 0.48278000000000004 0.31287 0.23789000000000002 0.69691 0.21916 0.6332899999999999 -0.038255000000000004 0.33755 -0.21883000000000002 0.58644 0.94053 -0.027556999999999998 -0.31694 0.43728 -0.71446 -0.05633099999999999 -0.39135 0.16079000000000002 -0.12290999999999999 0.41476 -0.8520200000000001 -0.18486 -0.13024000000000002 0.72848 0.52767 2.8807 0.9765799999999999 0.22848000000000002 -1.0432 -0.19976 -0.5267 -0.37329 -0.27347 -0.071575 0.033527 -1.22 -0.19008 0.43638000000000005 0.3062 0.080664 0.14303 0.00093202 0.84619 -0.055376999999999996 0.56679
vast 1.1724 0.2377 0.33893 0.19232 0.30727 -0.37748000000000004 -0.48213 -0.23951999999999998 0.91155 0.05856 -0.4509 -0.65773 0.7658 -0.29458 -0.18892 0.28708 1.2357 0.27247 0.078309 -0.13083 0.060978 -0.28915 -0.37723 -0.30816 -0.27197 -0.83606 -0.81139 0.25406 0.6423 0.44598999999999994 2.9102 -0.26619 0.34278000000000003 -0.72928 -0.78477 0.8691 -1.4358 0.2494 -0.30548000000000003 -0.086172 -0.12737 0.30404000000000003 0.35491999999999996 0.4992 -0.79292 0.13760999999999998 -0.6746300000000001 -0.2111 -0.6669 -1.3415
anemia 1.0756 0.40883 -0.1968 -0.31589 -0.9069299999999999 2.1312 1.0277 -0.24374 0.9407200000000001 1.3782 1.4207 0.1977 0.16818 -1.0784 0.31754 0.27653 -1.3139 -0.39399 0.42341000000000006 -0.23342 -1.6089 -1.3334 0.39161999999999997 -0.75022 -1.0631 -0.58286 -0.41239 0.0073296 0.19175 0.55009 0.067053 0.7272 0.48258 -0.40024 0.20611999999999997 -0.28021999999999997 0.50676 0.34071999999999997 1.1397 0.20389000000000002 -0.12800999999999998 -0.094016 -0.12285 0.33154 2.3698 0.32443 -0.49965 -0.43291 -0.16960999999999998 0.046449000000000004
school -0.9062899999999999 1.2485 -0.79692 -1.4027 -0.038458 -0.25177 -1.2838 -0.58413 -0.11179000000000001 -0.56908 -0.34842 -0.39626 -0.0090178 -1.0691 -0.35368 -0.052826 -0.37056 1.0931 -0.19205 0.44648000000000004 0.45169 0.72104 -0.6110300000000001 0.6315 -0.49044 -1.7517 0.055978999999999994 -0.52281 -1.0248 -0.8914200000000001 3.0695 0.14483 -0.13938 -1.3907 1.2123 0.40173000000000003 0.4171 0.27364 0.9867299999999999 0.027599000000000002 -0.8724 -0.51648 -0.30662 0.37784 0.016734 0.23813 0.49411000000000005 -0.56643 -0.18744 0.6280899999999999
fresnel 0.74743 0.10206 0.00079531 -0.28985 0.2498 0.39693 0.42139 -0.8289 -0.89989 -0.004665 1.6603 0.028894 -0.15774000000000002 0.4975 -1.2669 0.88215 -0.68538 -1.3525 -1.1436 -0.903 -1.1941 -1.386 -1.6819 -0.10484 -0.6815399999999999 0.90104 -0.27633 0.46387 0.50353 0.61929 -0.033992 -0.47226999999999997 -1.1189 -0.51045 0.01287 -0.0017151 0.89844 0.73848 -0.37469 0.25071 1.7703 0.12880999999999998 -0.29201 0.25952 -0.69316 0.6784600000000001 1.218 -0.16832 0.44845 -1.1672
cmc -0.49582 0.030811 0.27088 0.80289 0.75355 -1.6212 0.63326 -0.47939 -0.6501899999999999 -0.99455 0.39966999999999997 1.2101 -0.60532 -0.088788 -0.49087 1.1212 0.13577 0.17156 0.33347 0.061801999999999996 1.0004 -0.8754700000000001 0.105 -0.22768000000000002 -0.6076699999999999 0.3075 1.0544 -0.36138000000000003 -1.7735 0.45828 0.085109 -0.61226 1.1969 -0.39903 -0.43854 -0.09263300000000001 -0.41389 -0.34417 0.43885 0.26328 0.12318 0.18200999999999998 -0.8354 0.06434400000000001 1.1909 -0.31232 0.18366 0.16847 -0.081441 0.3034
upload 0.31934 0.22311 2.059 -0.07824500000000001 -0.13585999999999998 -0.6068 0.08029299999999999 -0.38795999999999997 1.1548 1.4227 0.017778 0.040913 0.54588 -0.37948000000000004 0.38466 0.10294 -0.31392 -0.81843 0.87611 -1.2102 0.92261 0.25887 0.57849 1.0394 0.9659700000000001 0.7461899999999999 -0.26245999999999997 -0.9602299999999999 0.47691000000000006 -1.192 1.1091 0.23613 -0.4863 -1.1025 -0.029435000000000003 0.46835 0.34848 -0.57502 -1.0352 -0.70448 1.8365 -0.32544 -0.12429000000000001 0.31204 -0.8143100000000001 -1.0337 1.3273 -0.8848799999999999 0.08090599999999999 -0.34171
cockerel -1.0862 0.29191999999999996 -0.8651399999999999 0.41833000000000004 0.5746 -0.031723 0.48691 0.091907 0.5647 0.07656 0.024827000000000002 0.47634 1.3088 1.0968 -0.23476999999999998 -0.35812 0.28872 0.13663 -0.9485 0.21818 0.57305 -0.59307 0.67256 -0.76355 -0.054885 0.015901 -0.5524899999999999 1.0579 -0.39038 -1.031 -1.2406 0.24525999999999998 0.055430999999999994 0.6511899999999999 -1.2825 0.25477 -0.40026999999999996 -0.5282 0.09375599999999999 -0.31501 0.50292 0.35766 -0.7852 -0.26909 -0.34275 -0.37718 -0.12215 0.56367 0.10624000000000001 -0.90191
math -1.0884 -0.078924 0.30677 -0.9557899999999999 0.47645 -0.32798 0.70252 -1.002 -0.46738999999999997 0.29418 -0.6694399999999999 -0.50846 -0.096858 -0.5512600000000001 -0.22546 -0.94737 -0.28756 1.1658 0.451 0.13749 -0.028543000000000002 0.21759 0.25333 0.47423000000000004 1.1265 -0.68007 -1.0725 -1.3512 -1.1247 -0.88571 2.1347 0.30425 -0.1623 -0.76226 1.4353 0.56505 0.018657 0.9073100000000001 0.6655399999999999 -0.27718000000000004 -0.85639 -0.78833 -0.11144000000000001 0.94473 -0.20822 0.49922 2.3431 0.9630200000000001 0.47236000000000006 0.5252600000000001
enjoy -0.28243 0.8113 -0.8506100000000001 -0.070786 0.43818 -0.67572 -0.31703000000000003 0.26434 0.22666 0.64675 -0.1023 0.17335 0.8692700000000001 -0.08171 0.58978 0.55009 0.7058800000000001 0.11972999999999999 0.5212899999999999 -0.9524299999999999 0.16927 0.71924 -0.062331 0.49409 0.74942 -0.57003 -0.52003 -0.24201999999999999 1.0188 -0.05790700000000001 2.7244 1.8266 -0.44952 0.12843 -0.12337000000000001 -0.083854 -0.71707 0.45365 -0.76549 -0.35991999999999996 -0.32875 0.013016 0.17324 0.88905 -0.25213 -0.098827 -0.42765 -0.46023000000000003 -0.19505 0.1617
charter 0.2602 0.71695 -0.45923 -0.43203 -0.40055999999999997 -0.098637 -0.76608 -0.5107 0.28333 -0.3696 0.013065 0.48438000000000003 0.30866 0.24931 -0.5395 0.0077269999999999995 -0.72335 -0.016536000000000002 0.13807 0.28667 0.6068100000000001 -0.28673000000000004 -0.81277 0.086512 -0.35965 -1.2602 0.26534 -0.6061300000000001 -0.25740999999999997 -0.045537 1.9699 0.35689 -1.4535 -0.16459000000000001 0.66433 -1.0552 0.82455 -0.5328 -0.8804 0.8106899999999999 -0.43437 -0.8583700000000001 0.71475 0.32328 -1.7739 0.57091 -0.64693 0.4267 0.074688 0.010642
scraper -1.0074 -0.62876 0.011031000000000001 0.22668000000000002 -0.24935 0.75639 -0.017904 -0.37736 0.030930000000000003 -0.6159399999999999 0.39831 -0.039697 0.82114 0.83435 -0.62237 0.67097 0.51927 0.26028 -0.21525 -0.72264 0.19451 -0.9990100000000001 0.17737 0.16524 -0.08075800000000001 0.37771 -0.49253 1.0615 0.8556600000000001 -1.3137 -0.3892 -0.51097 -0.31842 0.65261 -0.74069 0.83845 0.052407 0.55547 1.054 0.089524 0.8367 0.32121 -0.8526299999999999 0.64064 -0.015805 -0.78322 1.0533 0.18291 0.25155 -0.14823
batch 0.2228 -0.78401 0.60622 -0.52868 0.21216 -0.34289000000000003 -0.73339 0.18333 0.5383600000000001 0.33419 0.21463000000000002 -0.26364 0.9467 0.5108 0.5211399999999999 -0.50879 -0.7822100000000001 0.34139 -0.14515 -0.26092 0.6564300000000001 -0.5845899999999999 1.0159 -0.1857 -0.091366 -0.20679 -0.2564 -0.34828000000000003 -0.086632 0.14907 1.9572 -0.31379 -0.3248 0.53227 1.1584 0.8432200000000001 0.47889 0.47758 -0.064888 -0.40996000000000005 -0.010648999999999999 -0.4493 -0.16093 -0.40792 0.48033000000000003 0.45701 0.40110999999999997 1.0715 -0.3008 -0.33326
second -0.29809 0.28069 0.087102 0.54455 0.70003 0.44778 -0.72565 0.6230899999999999 0.00068863 -0.021056000000000002 0.25279 -0.55761 -1.0997 0.039402 0.52667 -0.6301899999999999 -0.18665 -0.79278 -1.5962 0.25619000000000003 -0.19394 -0.43099 -0.17204 -0.1613 0.15095 -1.6053 0.15869 -0.44338 -0.13576 -0.04376 3.4702 0.1412 -0.11392000000000001 0.5451199999999999 0.45893 -0.18561 0.56094 0.87956 0.00051749 -0.57134 -0.11777 -0.13594 -0.38943 -0.79267 -0.57329 0.38209 0.45583999999999997 -0.48396000000000006 0.34965999999999997 -0.29908
street 0.10499000000000001 0.039576 0.25295 -0.9977600000000001 0.47193 -1.0612 -0.9750200000000001 -0.31134 0.16424 -0.22771 -1.5832 -0.5204 -1.0451 -0.46424 -0.75864 -0.40436 -0.09472799999999999 -0.57213 -0.7521399999999999 -0.64862 1.3734 -0.20296 -0.98713 0.63052 -0.40843 -1.4155 -0.27149 0.63777 0.07190099999999999 -0.29919 2.7974 -0.22549 1.23 -0.27957 -0.13617 -0.6533800000000001 -0.020633000000000002 -0.63935 0.12992 -0.06471 -0.4136 0.015030000000000002 -0.46495 -0.36311 0.35067 0.5343 -0.0094085 -1.859 0.67313 -0.0025878
sooth 0.35014 -0.09387000000000001 -0.65051 -0.67264 -0.61632 0.065916 0.64215 1.4311 -0.1636 0.46166999999999997 0.41247 0.94825 0.45068 -0.28465999999999997 -0.63076 0.9077799999999999 -0.10540999999999999 -0.78279 0.8916299999999999 0.19397 0.042644 -0.0020271 -0.4967 -0.007727500000000001 0.7558600000000001 -0.049788 0.25888 0.066986 0.27066999999999997 0.010108 -0.9095 0.98072 0.67068 0.35294000000000003 -0.89875 0.18003 -0.74435 -0.43667 0.21151999999999999 -0.42858 0.7836 -0.4258 0.076734 0.3866 1.1802 -0.048282 0.44775 0.52861 0.040569 -0.70411
valiant 0.36121 -0.67957 0.13144 -0.32045999999999997 0.0016462 0.5685899999999999 -0.009448200000000002 0.096618 -0.21656999999999998 0.3232 -0.06379299999999999 0.79198 -0.7654 -0.31411 -0.70806 -0.83399 0.20956 0.64807 -0.76753 -0.15304 -0.22895 0.50389 -0.36217 -0.63432 -0.11420999999999999 -0.014565 -1.1839 -0.91714 0.83267 0.30339 0.34215 0.53098 -0.6907800000000001 0.71964 0.26009 0.69291 -0.28922 -0.9058200000000001 -1.129 -1.3076 0.48603 -0.88044 -0.69901 -0.74598 -0.0282 -0.031019 -0.3448 -0.30291999999999997 -0.22038000000000002 -0.024807
7th -0.59773 -0.073889 -0.095858 -0.28314 1.1352 -1.2905 0.018405 0.33549 0.16710999999999998 -1.7211 -0.28865999999999997 -0.41463 -0.31436 -0.11699999999999999 -0.59285 -0.73488 -0.67288 -0.7159 -1.1718 0.5612 0.2568 -1.3011 -0.22103000000000003 0.40058 0.03337 -0.5692699999999999 -1.3643 -1.4415 -0.792 0.44845 1.7533 -0.42976000000000003 -0.19779000000000002 0.16852999999999999 1.1019 0.10475999999999999 0.48678 0.2586 -0.80169 -0.10740999999999999 -0.30784 -0.6291899999999999 -0.23238000000000003 -1.0654 -0.17613 0.9940000000000001 1.2018 -0.9079299999999999 0.026189999999999998 0.092653
kidnap 1.3112 -0.24871999999999997 0.58043 0.17337 0.62042 0.6673100000000001 -0.009027 0.9219799999999999 0.18281 0.29134 -0.45828 0.28905 -0.10432000000000001 0.35439 0.77635 -0.7057399999999999 0.21886 -0.19643 -0.18513 0.7167100000000001 0.68395 0.69009 0.20375 0.8261200000000001 -0.6943 -1.3081 0.20773000000000003 -1.3017 0.35139000000000004 -0.36446999999999996 0.22719 0.11312 -1.008 -0.064226 0.66932 0.46313000000000004 -0.8310799999999999 -1.641 -0.29914 -0.32635 -0.29807 0.33805999999999997 1.0228 -0.49527 1.6237 -0.9287799999999999 -0.31023 -0.023944999999999998 0.59238 -0.53573
panda 0.9744 0.55728 -0.36434 1.1197 0.6677 -0.36384 -0.8492799999999999 -0.8261799999999999 1.0525 0.19899 0.9766600000000001 0.38705 1.4742 0.574 0.38159 0.11408 -0.6204 0.80816 -0.5969300000000001 1.385 -0.75549 -0.4953 -0.46526999999999996 -0.58386 0.44796 -0.5365300000000001 -0.037505000000000004 -0.13876 -0.48126 -1.0286 0.83935 0.48455 0.11972000000000001 0.63172 -0.25179 0.36778 -0.048445999999999996 -0.021816 0.12538 -0.6056199999999999 -0.91805 -0.6190100000000001 -0.039642000000000004 0.1109 1.5906 -0.92953 0.25587 -0.62032 0.42837 -0.023714
even 0.38336 -0.095871 0.12229000000000001 -0.51625 0.3491 0.1705 -0.55374 -0.0017357 -0.47808 0.43859 -0.25184 0.16347 -0.22386999999999999 -0.017963 0.80635 0.42586 0.14927 -0.19596 -0.097068 -0.97429 -0.32088 0.15314 0.26854 -0.011203 0.38486 -2.0684 -0.72715 0.31925 0.78713 -0.22962 3.5621 0.53464 -0.013249 -0.5381199999999999 -0.017443 -0.14833 -0.20759 0.39231 -0.30361 -0.44828 -0.48433000000000004 0.39363000000000004 0.1097 0.72701 0.10325 0.060642999999999996 -0.26805999999999996 -0.056359000000000006 -0.34692 0.13302999999999998
employ 0.47708 -0.82015 0.7074 -0.42562 -0.21516 -0.040202 0.071814 -0.34293 -0.51136 0.14518 0.35345 -0.09844800000000001 0.8617299999999999 -0.24161999999999997 0.049433 -0.24345 0.5270699999999999 1.0254 0.3127 -1.1499 0.30463 -0.25318 -0.34431 0.29363 -0.11189 -0.28333 -0.11567000000000001 -1.2936 0.007303499999999999 -0.36398 2.1218 0.12582000000000002 -0.26724000000000003 -0.36325999999999997 0.18703 0.35565 -0.28931 0.064861 -0.27686 0.22526 0.18917 -0.1056 1.0132 0.92048 0.31899 -0.6093 -0.06692200000000001 0.49698000000000003 -0.98535 0.47717
hide 0.78504 -0.28009 0.5788800000000001 -0.27366 0.6541100000000001 0.28256 -0.04281 0.1845 0.16893 -0.055116 -0.35455 0.61231 -0.47646000000000005 -0.33265 0.33501 0.60014 0.63198 -0.28997 0.37578 -0.42386 -0.062583 0.38458000000000003 0.64895 -0.072437 -0.41241000000000005 -1.4683 -0.85221 0.33668000000000003 1.4324 -1.0522 1.6694 0.036827 -0.35096 -0.42385 -0.19276 0.9993700000000001 -0.6692899999999999 -0.44264 0.05991900000000001 -0.6199 0.09372799999999999 -0.08656699999999999 0.51931 0.6594899999999999 0.85126 -0.8919600000000001 -0.10300000000000001 -0.41622 0.17440999999999998 -0.687
+ -0.52478 1.9003 1.6893 0.60468 0.22433000000000003 0.16079000000000002 0.8353 -1.1668 -0.21295 0.5209199999999999 0.16717 -0.080523 -0.09424199999999999 -0.6804899999999999 0.069053 0.080026 0.42723999999999995 0.40676 -0.11127000000000001 0.073266 0.11382 -0.38132 1.2858 1.0384 -0.5537 0.7007800000000001 0.076267 -0.6725800000000001 0.25261999999999996 0.13164 2.3263 0.14156 -0.28485 0.18625999999999998 0.33971999999999997 -0.45693999999999996 1.038 -0.85377 0.050138 -0.093139 1.3809 -0.8446600000000001 0.22796999999999998 -0.55633 0.18262 0.072961 0.24179 -0.14534 0.43551000000000006 1.1888
asia 0.5633199999999999 0.35875999999999997 -0.1462 0.9526100000000001 0.23723000000000002 -1.0129 -0.18750999999999998 -0.93129 0.79396 -0.46396000000000004 0.44569 0.25951 -0.33915 0.24486999999999998 0.35799000000000003 0.7319899999999999 0.039261000000000004 -0.14582 -0.65241 0.71711 0.6620199999999999 -0.38121 0.19965 0.18683 0.3275 -1.0706 -0.059900999999999996 -0.36175999999999997 -0.5864699999999999 0.76479 3.1661 0.9716799999999999 1.314 0.045797000000000004 -0.77305 -0.9020799999999999 -1.419 -0.080731 -0.9045200000000001 -0.13238 -1.1106 -0.091449 1.2981 -0.8005899999999999 0.60322 0.7400899999999999 -0.073624 -0.047436 -0.086802 -0.08617799999999999
fossil 0.7268600000000001 0.57572 0.5157 -0.59742 0.35785 0.8970299999999999 -1.0371 -0.92076 1.5849 0.8344 0.5481 0.48651000000000005 1.4674 0.89817 0.27061 0.8906799999999999 1.256 0.33418000000000003 -0.34813 -0.27949 -0.27451 -1.42 0.37039 -0.99519 0.6310899999999999 -0.5018 -0.9894 0.19354000000000002 0.25334 0.97926 1.234 -1.7148 0.49801000000000006 -0.3204 1.0431 0.20936999999999997 -0.317 0.31506999999999996 0.64559 0.41965 -1.1428 -0.88536 0.45373 0.64454 0.9475399999999999 0.6571199999999999 -0.19487000000000002 0.11617000000000001 -0.22405999999999998 -1.1673
conduct 0.5644600000000001 -0.62302 -1.0547 0.20027 -0.17065999999999998 -0.052763 0.69385 0.6589 0.67286 -0.26381 -0.16076 0.28689000000000003 -0.23308 0.21411999999999998 0.0077670000000000005 -0.6876899999999999 0.11707000000000001 -0.18354 -0.28012 -0.48494 0.9504799999999999 0.5994 0.28581999999999996 -0.42173 -0.27073 -1.4558 0.1566 -0.72143 0.11281 -0.17115999999999998 2.6173 0.032043 -0.9844200000000001 -1.6767 -0.28758 0.24744000000000002 0.75052 -0.10434 -0.68904 0.39385 -0.27105999999999997 -0.71348 0.57528 0.9082 0.092724 -0.81501 -0.20494 1.1686 0.092402 0.89504
new 0.19510999999999998 0.50739 0.0014709000000000002 0.041914 -0.16759000000000002 0.037517 -1.3969999999999998 -0.9239799999999999 -0.24295999999999998 -0.15170999999999998 -0.47828999999999994 0.054612 -0.24986 0.38398000000000004 0.016182 0.34938 -0.22626999999999997 0.086618 -0.41001000000000004 -0.18139 0.75607 -0.0262 -0.69557 0.10874 -0.47539 -1.8095 -0.1694 -0.059863 -0.16806 -0.094546 3.661 0.041462 -0.29161 -0.69772 0.30805 -0.28457 0.13217 -0.0076430000000000005 -0.09239 -0.49237 -0.27055 0.060425 0.09510700000000001 -0.23679 -0.086108 1.0243 -0.22779000000000002 0.030488 -0.14272 0.45411
net 0.047508999999999996 -0.70212 1.3383 0.10213 0.35452 0.19008 -0.58016 -0.79778 0.74459 0.51561 0.23593000000000003 -0.19689 -0.67804 -0.16404000000000002 0.13915 -0.6953 -0.18825 -0.87654 -0.9931 -0.29673 0.14843 -0.77295 -0.26242 -0.62245 -0.18055 -0.7442300000000001 -0.0012710999999999998 0.17206 0.090398 -0.50761 3.0173 0.99356 1.442 1.187 -0.76493 -0.55083 -0.28309 0.37148000000000003 0.7048 -0.6455 0.62187 0.14604 0.53998 0.10811 -1.2171 -0.45343999999999995 0.18041 0.64027 0.68847 0.076774
ever -0.09183999999999999 0.045829 -0.014578 -0.15912 0.36966 -0.055325 -0.64645 0.37028 0.044005 0.31908000000000003 -0.0022221 0.054467999999999996 -0.55971 0.32805 1.2631 -0.024974 0.4151 0.41472 -0.8 -0.36899 -0.26027 -0.0016870000000000001 0.19952999999999999 0.073913 0.5828 -2.0068 -1.0067 0.034075 0.41367 -0.072996 2.9454 0.27576 0.1077 -0.40571999999999997 0.0011923 0.061022 0.069987 0.52403 -0.7673300000000001 -0.9363799999999999 -0.81252 -0.1123 0.10375999999999999 0.29453 -0.27063000000000004 -0.012739 -0.3171 -0.03374 -0.39644 -0.019175
told 0.37633 0.058651999999999996 0.17005 0.46863 0.95799 -0.82027 -0.83683 0.53315 -0.22664 -1.1505 0.11026 0.22662 -0.8068 0.12202 0.91294 0.39002 -0.0051597 0.11369000000000001 0.45456 -0.11737 -0.07438099999999999 1.5088 0.46655 0.04601 0.68558 -2.2872 -0.081728 0.5556 -1.1222 -0.042912 2.5651 -0.12145 -0.42656000000000005 -0.11731 -0.5180100000000001 -0.51683 0.58125 -0.20615999999999998 0.67072 0.8228 0.21314 1.3662 -0.18691 -0.78497 0.73258 -0.51869 -1.5369 0.8491299999999999 0.51594 0.87639
men -0.41713999999999996 0.46493 0.13769 -0.19283 1.0112 0.14966 -0.020232 0.37339 -0.37315 -0.89002 0.15083 -0.93411 -0.78542 -0.34753 0.8464799999999999 -0.46299999999999997 0.12469000000000001 0.31815 -1.0671 -0.70007 -0.69082 1.0479 0.79692 0.54943 -0.41093999999999997 -1.7671 -0.60518 -0.59613 -0.19805 -0.5148199999999999 2.6693 0.79256 -0.37651999999999997 -0.27976999999999996 0.44483999999999996 0.28957 0.064096 0.35281999999999997 -0.62789 -0.09188400000000001 -0.25639 -0.26261 1.0343 0.59887 1.0275 -0.7078899999999999 -0.39715 -0.94399 -0.28476 -0.75795
richest 0.12068 0.72265 0.3417 0.7355 1.4843 -0.44815 -0.2878 0.27548 0.8903200000000001 0.34920999999999996 -0.3626 -0.52274 0.7753899999999999 0.56282 0.7125600000000001 -0.63341 1.3558 0.51727 0.075975 0.763 0.008484299999999998 -0.96175 -0.049268 0.38081 -0.36333000000000004 -1.0045 -0.77973 -0.73811 -0.7992199999999999 0.51374 1.2735 0.31442 0.91056 0.80413 -0.16049000000000002 -0.18929 -1.3275 1.5181 -0.39293 -1.0054 -0.90328 -0.41355 1.0047 0.43221000000000004 -0.30186999999999997 0.19768 -1.5067 -0.5324399999999999 0.33025 -0.63248
109 -0.13735 0.062026 1.3589 -0.24581 0.10894000000000001 -0.21503000000000003 0.18304 -0.4697 -0.11940999999999999 0.56403 -0.66805 -0.6942699999999999 -0.075165 0.081721 -0.2179 -1.1677 -0.5584 0.24078000000000002 -1.3482 0.17867 -0.47198999999999997 0.38513000000000003 0.66018 -0.55898 -0.55629 0.30548000000000003 0.36486 -0.31494 -0.22873000000000002 -0.29186 1.4687 0.29055 0.60473 0.6502399999999999 1.0603 -0.60782 1.014 -0.48631 0.28865 0.4306 -0.63213 -0.41898 1.2748 0.3767 -1.2076 1.2653 -0.89412 0.16000999999999999 0.1893 -0.12448
china -0.22426999999999997 0.27426999999999996 0.054742 1.4692 0.061821 -0.51894 0.45027 -0.32164 0.57876 -0.049142 0.52523 -0.18784 0.5253899999999999 -0.058431 0.19741 0.30754000000000004 -0.45411999999999997 0.38268 0.33441 0.42801000000000006 0.98406 -0.7637 -0.066755 -1.0027 1.1942 -2.3916 0.24326 -0.40705 -0.63413 -0.20831999999999998 3.8851 0.75046 0.14857 0.24485 -1.0143 -0.76356 -0.6382399999999999 0.73037 -1.2025 0.18932000000000002 -1.2139 -0.55377 1.3033 -0.8246100000000001 0.9965 0.15117 -0.6575300000000001 0.28569 0.45374 -0.85646
100 -0.40512 0.5742 1.3459999999999999 -0.13996 0.43251999999999996 -0.3077 -0.32409 -0.92374 0.066063 0.07574600000000001 -0.23176 -1.3912 0.53458 -0.6984199999999999 0.8055399999999999 -0.45688 0.25609 0.7663800000000001 -1.5809 -0.57738 0.31529 0.51795 0.9414600000000001 -0.21500999999999998 -0.21533000000000002 -0.56147 -0.13155999999999998 -0.39450999999999997 -0.16789 -0.48905 3.5038 0.48105 0.1655 0.52752 0.32299999999999995 -0.52776 0.79106 -0.37316 -0.10232999999999999 0.071076 -0.028671 -0.2327 1.2699 0.31640999999999997 -0.38491 -0.34047 -0.77056 -0.075053 -0.36491999999999997 -0.27254
forum 0.45937 0.8574700000000001 -0.9749899999999999 1.1289 0.27435 -1.1862 -0.29024 -0.9610299999999999 0.052913999999999996 -0.22366 -0.4552 -0.40763 0.020183 0.90694 -0.10499000000000001 -0.092295 0.3548 -0.06504299999999999 0.08151599999999999 0.32981 0.9555 0.070502 -0.2429 0.48113 0.12259 -0.56599 0.58057 -0.5112800000000001 -1.6933 0.074796 2.5987 0.6795 -0.8916700000000001 -0.85551 -1.3662 -1.0597 -0.38772 -0.07220399999999999 -0.48261000000000004 0.27262 -0.43786 -0.7192 -0.19721 0.1134 0.46576999999999996 0.89992 -0.28149 0.5041899999999999 0.04143 0.29025
dri -0.83029 -0.17263 -0.06761 -0.6452600000000001 -1.0164 -0.61263 -0.26996 -1.5951 0.98906 -0.22809000000000001 -0.72121 -0.61952 -0.65525 -1.3952 -1.1925 0.44011000000000006 0.94396 0.33475 0.62651 -0.06779400000000001 -0.53063 1.1540000000000001 -0.71559 -0.27049 0.2378 0.57116 -0.28854 0.071258 -1.0858 1.1673 0.12917 -1.6485 0.68808 0.67747 0.20304 -1.091 -0.21126 -0.76435 2.4555 -0.18077000000000001 0.57138 -0.41362 -0.16309 0.24716999999999997 1.8687 -0.26644 0.9996 0.63986 0.076939 1.3678
credit -0.14507 0.18523 0.87624 -0.40109 -0.54593 0.27876 -0.5384399999999999 -0.073749 0.033542 0.29605 -0.015165000000000001 0.9795200000000001 -0.39951 -0.22479000000000002 0.39135 0.18065 -0.099005 -0.56547 0.8134899999999999 -0.29484 1.1046 -0.53413 -0.6068399999999999 -0.14538 -0.60555 -1.3484 -0.17349 -0.22011999999999998 -0.10161 0.05990499999999999 3.1936 0.71105 1.2331 0.041516000000000004 -0.049375999999999996 -0.075647 -0.66999 -0.63843 0.92575 -1.3003 -0.1455 -0.017748 0.6762600000000001 0.21389 -0.53501 -0.91446 0.099732 1.0489 0.73924 0.3247
smoke 0.23931 -0.10237 0.46216 -1.0625 -0.27571999999999997 0.051299000000000004 -0.12425 -0.27626999999999996 0.65028 0.34110999999999997 0.065679 -0.8357899999999999 0.3174 0.57538 0.25194 0.5242899999999999 -0.34534000000000004 0.3085 -1.2808 -1.9917 0.097094 0.5355 0.70291 0.027943 -0.18064000000000002 -1.2365 -0.41436000000000006 1.8839 1.3031 -0.096973 1.6182 0.096226 0.072556 -1.0123 -0.35564 0.25353000000000003 0.22186 -1.0553 1.4083 0.51379 0.10827 0.49698000000000003 0.46405 0.55193 1.1569 0.7501399999999999 -0.061324000000000004 -0.8461200000000001 0.054061 -0.84201
studi 0.11018 -1.1540000000000001 0.015294 -0.75842 -0.56615 -1.0022 0.8554799999999999 -1.1425 1.0799 1.3389 0.69462 0.15755 -0.22739 -1.6567 -0.3156 -1.4658 -0.54709 0.47336999999999996 0.46387 1.1422 -0.92114 -0.58363 0.33996 1.5707 -0.16401 0.72459 0.055946 0.18996 -1.0942 -0.9913200000000001 -0.18980999999999998 0.28834 1.2168 -0.19767 -1.0227 0.2672 0.10482000000000001 -0.16999 1.0535 0.29878000000000005 1.2916 0.79999 -0.99313 -0.27431 -0.8552 -0.5023 1.0922 -0.61083 -0.042051 0.78841
glt -0.12968 -0.37636 1.29 0.045872 -0.19087 -0.8829899999999999 0.18836 -0.68218 -0.22933 -1.0828 0.55213 0.15239 0.098264 0.293 0.034673 0.91533 -0.58641 0.73482 0.36291999999999996 0.12469000000000001 0.27576999999999996 -0.43253 -0.47618999999999995 0.72724 0.73847 1.0989 -0.67742 -0.15842 -0.041893 0.42983999999999994 -1.1379 0.11067 0.81829 0.66137 0.24583000000000002 -0.12163 -0.37077 -0.733 -0.12342 -0.17518 0.64828 -0.65612 1.1176 -0.50808 0.11725 0.028633 1.0376 1.1948 0.40531999999999996 0.5663600000000001
campaign 0.18605 -0.52757 0.1689 -0.20536999999999997 -0.69671 0.38071 -0.8509700000000001 -0.48986 0.20385999999999999 -0.49999 -1.6093 -0.7842899999999999 -0.61771 -0.52793 0.16998 -0.95378 0.047318 -0.21941999999999998 -0.090783 0.2105 0.20686999999999997 -0.26425 0.33384 -0.57424 -0.2762 -2.3502 -0.21173000000000003 -0.1509 0.15407 0.36454000000000003 2.6407 0.66609 -1.4985 -0.76757 -1.0709 0.049101 -0.7638699999999999 0.24441 -1.0476 -0.9731799999999999 -0.31209000000000003 0.20546 -1.0702 -0.43901999999999997 0.095622 -0.36801 -0.60426 0.079569 0.08342999999999999 0.46081000000000005
reagan -0.3621 0.7699 0.7166399999999999 -1.0675 -0.39100999999999997 0.31661999999999996 -0.63059 -0.57425 -0.74064 -0.30679 -1.2173 0.41033000000000003 -0.28876 0.36269 0.007279899999999999 -0.23594 -0.86411 0.16658 0.26833 -0.00055836 -0.22871 0.19438 -0.045773 -1.6685 0.17640999999999998 -2.2157 -0.42561000000000004 0.34981999999999996 0.015278 0.43496 0.67088 -0.13567 -0.83794 -1.2286 -0.39249 -0.13583 -0.044617000000000004 0.67556 -0.40926 -0.42426 -0.74449 0.58368 -0.29996 -0.11759000000000001 -0.81893 0.31306999999999996 -0.8395 -0.43592 -0.7553 0.4373
treatment 1.2129 0.1794 -0.78476 -0.59785 -1.0579 0.8378700000000001 0.51197 0.14406 1.0359 0.9515100000000001 0.44521000000000005 -0.31813 0.53561 -0.62935 0.27831 0.22614 -0.60349 -0.30374 0.41071 0.24203000000000002 -0.56889 0.86561 0.17554 -0.24045 -0.43451000000000006 -1.4961 0.24072 -0.26981 0.19057000000000002 0.36414 3.2887 0.12111 -0.31972 -0.92311 0.17126 0.49171000000000004 1.1672 0.69535 0.61242 -0.23085999999999998 0.0031133000000000003 0.11312 0.76307 1.0815 0.96067 -0.22464 -0.32395 0.36961 -0.040345 0.81638
julia 0.35641999999999996 1.1834 -0.10387 0.22215 0.14176 1.0903 -0.21405 0.25616 -0.60769 -0.38742 -0.43918999999999997 0.9037700000000001 -0.44413 0.34396 0.6087899999999999 -0.1483 -0.0039533 -0.4284 0.31894 0.2155 0.22579000000000002 0.73451 0.3014 0.62373 1.0282 -0.73192 0.2864 -0.35081999999999997 -0.49946 -0.29059 0.35281 0.39814 0.26861 -0.42949 -0.29573 -0.39566999999999997 -0.20052 0.74438 0.37396 -0.60044 0.34219 0.96909 0.5380699999999999 -1.321 -0.024624 0.66218 -0.30228 -1.7046 0.6348199999999999 0.93558
moral 0.11957999999999999 0.68839 -0.74547 -0.95344 0.97552 0.858 1.5734 -0.5883 -0.11357 0.60943 -0.50759 0.70063 -0.60321 -0.40639000000000003 -0.7023699999999999 -0.41173000000000004 0.5097 -0.21445999999999998 0.29631 -0.19926 -0.70108 1.1994 -0.56382 -0.7412 0.5384800000000001 -1.5609 -0.9192299999999999 -0.28974 0.51423 0.72813 2.2086 0.2966 -0.5645899999999999 -1.1421 -0.70498 -0.14289000000000002 -0.34359 -0.65188 0.082337 -0.03003 0.46298999999999996 -0.25718 0.29266 1.4307 -0.8859299999999999 0.8151 -0.10396 0.9085799999999999 0.21261 -0.4371
unit 0.80716 -0.73568 0.46441000000000004 0.38816999999999996 0.81285 -0.071391 0.086632 -0.37521 0.81583 -0.8959299999999999 1.1361 0.013694999999999999 -0.58945 0.061078999999999994 -0.87372 -0.19459 -0.81176 1.1079 -0.92904 -0.23495 0.7835300000000001 -0.34799 -0.4424 -0.34623000000000004 -1.8615 -1.1451 -0.5953 -0.43875 -0.014158 0.46438999999999997 3.0388 -0.32576 0.30089 -0.29625 0.34649 0.28405 -0.0914 -0.35001 0.7106600000000001 -0.18158 0.60715 -0.45332 0.24591999999999997 -0.29605 -0.18114 -0.35076 0.11465 0.13875 -0.38471 0.84036
dna 1.5254 -0.62415 0.46343 0.86997 1.0652 1.6919 0.36667 -0.18018 1.7664 0.68529 0.93934 -0.59654 -0.012565 0.19657 0.57104 0.48641 -0.28174 -1.2343 0.47888000000000003 -0.24681999999999998 -0.086103 -0.5253800000000001 0.81786 0.23601999999999998 -0.031694 -0.9552 -0.8332700000000001 -0.43082 -0.29061 -1.5646 1.8458 -1.7926 -0.27685 -1.1984 1.0755 0.20317000000000002 0.50459 0.82424 0.38877 0.29694 0.12745 -0.33873000000000003 0.24523000000000003 0.51359 0.66725 -0.48271000000000003 1.5093 0.16717 -0.5089899999999999 -0.6631600000000001
ranchi -0.75843 -0.51607 0.2344 0.31261 -0.3256 -0.2565 0.97329 0.40307 -0.23176 -0.30695 0.6963 -0.69128 0.21516999999999997 -0.63602 -0.8760399999999999 0.68096 -0.28851 1.3612 -0.040099 1.3666 0.26299 -0.21821999999999997 -0.48236999999999997 1.0834 -0.089801 -0.51674 0.42599 0.56628 -0.67603 -1.2904 -0.33891 0.30816 1.0055 -0.46057 0.23825 0.37098000000000003 -0.20751 -0.45185 1.0384 0.70509 -0.50765 0.28159 0.01564 -0.14658 -1.3714 0.7833600000000001 0.9798100000000001 0.65512 0.26026 -1.3145
would 0.7619 -0.29773 0.5139600000000001 -0.13302999999999998 0.24156 0.066799 -0.54084 0.2071 -0.28225 -0.11638 0.21666 0.54908 -0.36744 -0.10543 0.81567 1.1743 0.56055 -0.3345 0.099767 -0.87465 0.12229000000000001 -0.18532 0.086783 -0.36343000000000003 0.008002 -2.2268 -0.20079 -0.10313 0.24318 -0.39819 3.7136 0.5908800000000001 -1.1013 -0.25292 0.0057067 -0.60475 0.35965 -0.059580999999999995 -0.029058999999999998 -0.3989 -0.5263100000000001 0.12435999999999998 0.13609000000000002 0.12699000000000002 -0.23031999999999997 -0.044567 -0.6545 0.43088000000000004 -0.22768000000000002 0.4026
music -0.92448 0.59807 -0.995 -0.045298000000000005 -0.38836 0.032817 -1.1416 -0.30201999999999996 -0.33753 2.0498 0.72614 0.25759 0.062278 0.60505 0.19414 -0.33841 0.0098585 0.28398 -0.025021 -0.53623 1.2342 1.0731 -0.087618 0.9911399999999999 0.49666000000000005 -0.46601000000000004 -1.7859 -0.50884 -0.6774399999999999 -0.9162600000000001 3.6685 -0.58218 0.72491 -0.47676 -0.35207 0.041236 0.27288 -0.205 -0.1238 0.10142000000000001 0.59449 0.27638 -0.9274899999999999 -0.6390600000000001 -0.13326 0.50902 0.15386 -0.86544 -1.3564 0.28513
dns -0.15844 -0.20740999999999998 0.39392 1.7836 -0.21 -0.44033 0.88835 0.31217 0.36598 -0.15622 0.31681 0.8822399999999999 -0.5198 -0.63732 -0.26359 -0.16202 -0.49556000000000006 -1.3692 0.64365 0.07612200000000001 -0.49204 -1.7172 0.1123 1.2033 0.26633 0.47286999999999996 0.20567 -1.0924 0.76152 -0.53159 0.75066 -0.24224 -0.034004 0.35779 -0.3269 0.088147 0.50389 -0.43838999999999995 -0.27176 0.19875 1.6428 -1.1797 0.004471500000000001 0.7454 0.6566 0.8411700000000001 1.0663 0.62293 1.025 0.025768
recommend 0.52735 -0.61475 -0.42523999999999995 -0.8830600000000001 -0.15339 -0.21839 0.31856999999999996 0.09387899999999999 0.34386 -0.032786 -0.29509 0.49267 0.47723999999999994 0.27871999999999997 0.5514 0.68597 0.064149 -0.63731 0.75359 -1.2377 0.58236 -0.14113 0.42288000000000003 -0.10094 -0.45307 -1.0228 0.084672 -0.42117 -0.43833999999999995 -0.21805 1.6802 0.45255 -1.1585 -0.43177 0.5373600000000001 -0.45175 0.86718 0.42056000000000004 0.14023 -0.3656 -0.26819 -0.15519000000000002 0.49591999999999997 0.91899 0.73838 -0.051499 0.19389 1.1663 -0.10517 1.2007
type 0.4545 0.44866999999999996 0.25098000000000004 0.19588 0.15144000000000002 0.8434200000000001 0.71705 -0.93999 -0.17253 -0.11095 0.53159 0.63268 0.21535 0.28225 -0.26311999999999997 0.19534 -0.57367 0.78071 -0.73573 -0.5267 -0.68811 -1.0655 0.19512000000000002 0.3593 0.050894 -1.2452 -0.95129 0.0018235 0.94321 0.086563 3.0592 -0.8666 -0.0656 -0.24285 0.65587 0.14984 0.88066 0.067367 -0.32547 -0.057152 0.48098 -0.5664899999999999 0.51436 0.80887 0.7096 0.33316 0.48097 -0.018729 0.5485399999999999 0.77098
tell 0.27569 0.11782999999999999 0.37882 -0.49723 0.76888 -0.36291999999999996 -0.54519 0.65276 -0.46171999999999996 -0.14952000000000001 -0.38614 0.79168 -0.15403 -0.05820499999999999 1.1229 0.5652699999999999 0.16595 -0.077778 0.64327 -0.7298399999999999 -0.21189000000000002 0.92225 0.69001 0.69599 1.1019 -1.9937 -1.2675 -0.15723 0.48296000000000006 -1.2519 2.285 0.46188999999999997 -0.70236 -0.47738 -0.14543 -0.20278 0.074301 -0.36134 0.38502 -0.21961999999999998 -0.018846 0.3053 0.039375 0.38343 0.5482600000000001 0.06803 -0.065348 0.05706900000000001 -0.12170999999999998 0.79355
alphabet -0.19596 -0.30233000000000004 -0.57992 -0.5360699999999999 0.58477 0.29172 0.27533 -0.88266 -1.5203 -0.022763 0.9666 0.86524 1.1331 0.39066999999999996 -0.081183 -0.48848 -1.3513 0.3959 0.6126199999999999 0.58204 -0.61733 -1.4052 0.054373000000000005 1.0504 0.49665 -0.5100100000000001 -1.1221 -0.051044 -0.2139 -1.2047 1.8711 -1.1061 -0.48901000000000006 0.65968 0.51067 0.54795 0.298 -0.68056 -0.47868999999999995 1.1389 0.70081 0.1536 -0.21120999999999998 -0.33150999999999997 -0.34346 0.8480200000000001 1.2947 1.1258 -0.51227 -0.73666
hurt -0.26288 -0.9012100000000001 0.64463 -0.14652 0.2974 0.42418 -0.39723 0.68855 -0.13393 0.19897 0.19587000000000002 -0.0075209000000000005 -0.9756100000000001 -0.24838000000000002 0.6944600000000001 0.57138 -0.18056 -0.23726 -0.019127 -0.52318 -0.36451999999999996 0.47298999999999997 -0.1222 -0.40747 0.39043 -1.7983 0.0076305999999999995 0.20085 1.0248 -0.18089 2.5821 1.1084 0.99265 0.049661000000000004 -0.27164 -0.25605 -0.1735 -0.50317 0.39697 -0.37799999999999995 -1.0458 0.25859 0.39532 -0.12422000000000001 0.7651600000000001 0.013082 -0.7528199999999999 0.25945999999999997 0.19648 0.44253000000000003
99 -0.79192 0.57934 1.41 -0.26268 0.24705 -0.09749400000000001 -0.47629 -0.56692 -0.13522 0.68952 -0.47751000000000005 -0.56372 0.17889000000000002 -0.38848 0.14707 -0.5555399999999999 -0.41192 0.3428 -1.0625 0.045942000000000004 -0.29755 0.07579 0.8283299999999999 -0.027822000000000003 -0.40004 -0.25538 -0.10353 -0.20605 0.31006999999999996 -0.36138000000000003 1.8872 0.10903 0.080544 0.65427 1.1972 -0.91169 0.9254 -0.11035999999999999 0.18888 0.040820999999999996 -0.32793 -0.5176 0.85525 0.42001000000000005 -1.2888 1.1307 -0.7148899999999999 0.18553 0.34413 0.036069
phone 0.8512700000000001 -0.046713 1.7694 1.2673 0.17606 -0.16567 -1.0085 0.12969 0.19852 0.076439 -0.14110999999999999 0.080613 0.056659 0.24051999999999998 0.36689 0.34795 -2.1473 -0.0285 0.66668 -0.61758 1.0825 0.50555 -0.094894 0.898 0.55883 -1.8148 0.1511 -0.18278 0.45761999999999997 -0.79109 2.8633 0.3695 0.12702 0.29574 -0.07912899999999999 -0.26064 0.030947000000000002 -0.27305 -0.30831 0.037718 1.3159 0.9517 -0.44238999999999995 0.67686 0.17581 -0.24156 -0.083272 0.12821 -0.018288 0.35615
adult -0.11940999999999999 0.41365 -0.06903300000000001 -0.7823 0.7178 1.3926 -0.4255 -0.9703700000000001 1.0668 0.29361 0.42356000000000005 -0.26536 1.2586 0.5897 0.6635800000000001 -0.11947 -0.5456300000000001 0.63848 -0.33371999999999996 0.16693 -0.24625 0.70568 1.1828 1.5009 -0.23576 -0.65605 -0.2508 -0.62052 0.092142 0.018576 2.6218 0.23755 0.20075 -0.92991 0.14143 0.26081 0.22186999999999998 -0.5568 -0.34384000000000003 -1.0049 -0.15775 -0.31162 0.18086 0.9709200000000001 0.31748000000000004 -0.29818 0.24238 -0.78579 -0.48475 0.92212
lotus 0.49038999999999994 0.54051 0.19166 1.1993 0.96783 0.23106 -1.1285 -1.3656 0.24708000000000002 0.25140999999999997 0.54905 0.67315 -0.8794700000000001 -0.49988999999999995 0.21961999999999998 -0.14107999999999998 -0.6788 1.042 -0.0084049 -1.244 -0.27751 -0.36699 -0.14744000000000002 -0.47265 -0.0030021 0.53474 0.078308 -0.057630999999999995 -0.69093 -0.48553 1.0019 -0.36619 -0.7118 1.0765 0.30501999999999996 -0.7216100000000001 -0.4662 0.2392 0.20114 -0.36446999999999996 -0.024738 -1.649 -1.0953 0.26671999999999996 0.8365799999999999 0.02426 0.27476 -0.48403 -0.090026 -0.72758
hole 0.55884 -0.077705 0.80294 -0.20567 0.1485 0.25196 -0.44601999999999997 0.58543 0.64978 -0.72848 -1.1519 -0.58253 -1.0223 1.1999 -0.13922 0.075113 1.2258 -0.61448 -1.3514 -0.39648 -0.7066399999999999 -0.16049000000000002 0.086237 -0.67656 0.88476 -0.8387600000000001 -0.86226 0.71659 0.10960999999999999 -0.8217200000000001 2.4083 -0.8518600000000001 0.024919999999999998 1.3114 -0.11692999999999999 0.27168000000000003 0.40499 1.1089 1.2828 -0.83699 -0.038022 -0.75563 -0.09548 0.80824 -0.034258 -0.025445 1.339 -0.76203 0.1284 -0.35638000000000003
hold 0.1685 0.4121 0.26147 0.060323 0.6937399999999999 -0.35629 -0.06489299999999999 0.45556 -0.39808000000000004 -0.34371999999999997 -0.38861 -0.20992 -0.099759 0.58824 0.2568 0.5546300000000001 0.22025999999999998 -0.5767399999999999 0.19513 -0.7299800000000001 0.6666300000000001 0.15332 0.43248000000000003 -0.29888000000000003 -0.31555 -1.4389 0.26156999999999997 -0.34023000000000003 -0.2951 -0.034326 3.2758 0.85082 -1.1836 0.090711 0.005285 -0.2693 -0.0042106 0.11362 -0.16524 -0.34256 -0.48571000000000003 -0.1607 -0.024725 0.39731 0.045245999999999995 0.14125 -0.33749 0.23041999999999999 -0.28071999999999997 -0.5181899999999999
must 0.47768999999999995 -0.12242 0.29475999999999997 -0.52751 0.6915600000000001 -0.10851 0.20465 0.29798 -0.025924000000000003 -0.23163000000000003 0.49905 0.75481 -0.15678 0.0267 0.66682 0.99944 0.72597 -0.20415999999999998 0.75679 -0.97526 -0.1006 -0.19121 0.38095 0.20403 0.17145 -1.8234 -0.18598 -0.42763 0.36403 -0.50133 3.5515 0.69701 -1.3702 -0.63166 -0.08656900000000001 -0.16877999999999999 0.45671000000000006 -0.049201 -0.18019000000000002 -0.4342 -0.22463000000000002 -0.48252 0.55707 0.47351000000000004 -0.21836999999999998 0.1794 -0.26126 0.32514 -0.10780999999999999 0.12242
shoot -0.063457 -0.74436 0.9290700000000001 -0.5532699999999999 0.39437 -0.25808000000000003 -0.18677 0.02496 -0.1716 0.13956 -0.32155 -0.36284 -0.4959 0.79624 0.39866 0.11942 0.68771 -0.13260999999999998 -1.4974 -0.45721999999999996 0.086738 0.90889 0.49078999999999995 0.33484 0.44728999999999997 -1.3216 -0.3101 -0.13957999999999998 0.91776 -1.3281 1.8597 0.27071999999999996 -0.90553 0.14082999999999998 0.37231 0.52991 0.56667 -0.2061 -0.5143800000000001 -0.31816 0.17 0.36403 0.65468 -0.08143 0.59535 -0.7542399999999999 0.7991 -0.41092 0.17538 0.2694
1990 -0.79999 0.24915 0.1138 -0.13649 -0.62585 0.40406 -0.6616 -0.42266000000000004 -0.25012 0.033872 0.51783 -0.40922 -0.7198 -0.20429 1.2498 -0.2235 -0.26631 0.27371 -0.88071 0.74321 0.28528000000000003 -0.19895 0.38545 -0.3475 -0.68907 -1.2408 -0.1382 -0.49208 -0.41041000000000005 0.63375 2.3194 -0.42118999999999995 -0.46658 -0.47818999999999995 -0.12587 -0.24158000000000002 0.48103 0.15386 0.029227 -0.47635 -0.8201299999999999 -0.30545 0.13828 -0.79947 -1.0381 0.20876 -0.58378 -0.58524 -0.38189 -0.23535
join 0.35819 0.27701 0.11172 -0.2323 0.088961 -0.38405 -0.9041399999999999 0.8364 -0.5768300000000001 -0.53735 0.39809 0.22029 -0.45776999999999995 0.23434000000000002 -0.11632999999999999 0.30078 0.81404 -0.1125 -0.045471 -0.23455 0.041953 0.011856 -0.10295 0.63302 -0.41546000000000005 -1.5055 0.76489 -0.95373 -0.8594299999999999 -0.42165 2.6321 1.2754 -1.3012 -0.12969 -0.23035 -0.48685 -0.1713 -0.28975 -0.56311 -0.6172300000000001 -0.077356 -0.37792 -0.047039 -0.5906399999999999 0.19568 0.17748 -0.51369 -0.024059999999999998 -0.8656799999999999 -0.10985
room 0.51518 0.80125 -0.13731 -0.47200000000000003 1.0321 -0.75538 -0.58585 -0.10405999999999999 -0.22021 -0.38029 -0.82568 -0.1288 -0.059862 0.8529 0.54697 0.43243000000000004 -0.54769 0.35936 -0.14251 -1.2086 0.72885 1.0991 -0.34049 0.014483000000000001 -0.20405 -0.98005 -0.07667 1.0827 0.34460999999999997 -0.37714000000000003 2.8916 0.23911 -0.091089 -0.45495 0.24013 0.9277700000000001 0.77564 0.37424 0.84257 -0.34445 0.049718 0.27486 -0.35370999999999997 1.0032 0.08132400000000001 0.25981 0.17708 -1.1572 -0.080012 0.08213999999999999
cheapest 0.76573 -0.16302 0.9357200000000001 -0.1261 0.11002 -0.58301 -0.18029 -0.50937 0.50416 1.2756 -0.014956 -0.28915 0.7683800000000001 0.33169 0.9375899999999999 0.6924 0.29358 0.90586 0.08972999999999999 -0.9680700000000001 0.5682 -1.1953 -0.73054 1.4834 0.12622 -0.41503 -0.43135 0.16797 0.86165 0.81079 1.0392 0.49975 -0.24056999999999998 1.0942 1.4246 -0.27359 0.33114 1.0612 -0.44866000000000006 -0.32478 0.072555 0.33188 0.43306999999999995 0.8175100000000001 -0.35553 0.6844 0.084472 0.49996999999999997 1.1408 0.23555
setup 0.13932 -0.45195 -0.09454 0.4202 0.059122 -0.18917 0.047484 -0.26016 -0.20107 0.15408 -0.0062339 0.33046 -0.46398999999999996 1.0146 -0.017255 -0.17517 -0.02402 0.57927 0.49157 -0.56777 -0.7082 -0.3121 -1.0931 0.43936000000000003 0.1275 -0.032633999999999996 0.26213000000000003 0.073563 0.63677 -0.13807 2.0177 -0.14544 -0.34079 0.17090999999999998 0.40355 1.0369 0.79485 0.38591 -0.24149 -0.3925 0.2706 -0.0025331 -0.83552 0.8387399999999999 -0.64078 -0.060788 0.94066 0.52965 -0.052926 0.97754
work 0.51359 0.19695 -0.51944 -0.86218 0.015493999999999999 0.10973 -0.80293 -0.33361 -0.00016119 0.010189 0.046734 0.46751000000000004 -0.47475 0.11037999999999999 0.39327 -0.43651999999999996 0.39984000000000003 0.27109 0.4265 -0.6064 0.81145 0.4563 -0.12725999999999998 -0.22474 0.64071 -1.2767 -0.72231 -0.6959 0.028045 -0.23071999999999998 3.7996 -0.12625 -0.47967 -0.99972 -0.21975999999999998 0.50565 0.025952999999999997 0.80514 0.19929000000000002 0.28796 -0.15915 -0.30438000000000004 0.16025 -0.1829 -0.038563 -0.17619 0.027041000000000003 0.046842 -0.62897 0.35725999999999997
mi -0.3653 1.2151 0.71453 0.31229 -0.17224 -0.55415 0.69202 -1.2117 -0.54159 -0.08591900000000001 -0.031323000000000004 -1.0773 0.18119000000000002 -1.3838 -0.67789 -1.1707 -0.11394000000000001 0.80193 0.10977 1.3143 -1.21 0.40539000000000003 0.51859 -0.14113 0.8143699999999999 0.3621 -0.3669 0.048642000000000005 -0.38156 -0.8812700000000001 2.2641 -0.29858 0.29159 1.515 -0.27768000000000004 -0.9754299999999999 0.22488000000000002 -0.61475 0.7969 0.18924000000000002 -0.13018 -0.8053 0.85349 -1.6858 0.040229 -1.7171 0.39655999999999997 -0.84593 0.74436 0.53833
spec -0.5523 -0.46286000000000005 0.93681 -0.08562 -0.19895 -0.42039 0.14378 -1.2017 -1.0590000000000002 -0.26198 -0.42796000000000006 0.50907 -0.71937 5.9178e-05 0.34842 -0.043069 0.18819 0.56294 0.38531 -0.13398 -0.19503 -0.45257 -0.22618000000000002 0.4187 -0.080846 0.23671999999999999 -0.48094 -0.013378 -0.040719 -0.32745 0.17009000000000002 -1.087 -0.14138 0.7832399999999999 1.0409 0.4963 0.46088999999999997 -0.29052 -0.49755 -0.32932 0.28415999999999997 0.13349 0.54228 -0.61985 -0.11635999999999999 0.16849 0.9308799999999999 0.20088 0.0059538 0.4409
mv 0.9749 0.78527 0.64594 0.7300300000000001 -0.49568 -0.12869 -0.39962 -0.11114 0.6795 -0.23892 1.3647 1.0158 0.30791999999999997 0.10159 -0.3859 -0.2428 -0.76585 0.8538899999999999 -1.4655 0.43888999999999995 -0.53096 0.6095 0.32616 -0.3014 0.24238 -0.23839000000000002 -0.090805 0.5343 0.30078 0.39326 -0.46928000000000003 0.35743 -0.38103000000000004 1.4006 0.008062999999999999 -0.31534 0.31305 -1.4271 0.036016 0.26124 1.1497 -0.30404000000000003 0.6614399999999999 -0.62536 -0.49495 -0.94105 -0.9146799999999999 -0.64864 0.8997 -0.8387899999999999
ms 0.42466000000000004 0.8517399999999999 0.86044 0.28764 -1.1888 0.55108 0.55534 -1.0267 0.051139 -0.21495 0.62336 0.8127300000000001 0.17198 -0.8812200000000001 -0.16113 0.4075 -1.4293 0.80507 0.14954 0.70958 -0.29971 0.61817 0.82936 -0.074135 0.84009 -0.40643 -0.11598 -0.49811000000000005 -0.72031 -0.26509 0.96567 0.21464 -0.14323 0.68243 0.29513 -0.26516999999999996 0.8332 -0.25623 0.7508699999999999 -0.32082 0.94095 -0.32897 0.5111 0.17019 -0.0040018 0.12791 0.49053 -0.19905 0.44738999999999995 0.13526
root 0.67302 0.34919 0.020144 0.019977 0.39892 0.68309 0.55383 -0.48646999999999996 -0.10522000000000001 -0.45253000000000004 -0.14060999999999998 0.6390600000000001 -0.18367999999999998 -0.70748 -0.561 0.2 0.26979000000000003 0.013835 0.8495299999999999 0.26488 -0.8293799999999999 -1.4224 1.0331 0.27098 -0.1391 -0.81835 -0.14372000000000001 0.18646 0.8529 -0.10162 2.6252 -0.54804 -0.51139 0.10874 -0.65083 0.4562 -1.0397 -0.3757 0.5403100000000001 -0.056573000000000005 0.51498 -0.5563899999999999 -0.83491 0.34 1.2377 0.26328 0.74458 0.090425 -0.07991000000000001 -0.31938
fresher 0.14702 -0.79382 -0.15014 -0.95126 0.19313 -0.24608000000000002 0.23600000000000002 0.23785 -0.069799 0.54433 0.62997 -0.031180000000000003 0.18019000000000002 0.15011 0.11294000000000001 0.73733 -0.17609 0.67179 0.13228 -1.5723 -0.90848 0.32518 0.6490100000000001 0.2501 0.74568 0.17632 -0.35618 1.1458 0.7418899999999999 0.14265999999999998 0.42631 1.2789 0.86075 -0.030994 0.71157 0.22659 -0.07410800000000001 1.5137 -0.40078 -1.1636 0.093054 -0.17548 0.37487 0.27224 0.47356000000000004 0.8383200000000001 0.40237 -0.053766999999999995 -0.23738 0.42296000000000006
give 0.30577 0.30053 0.22805999999999998 -0.14625 0.7430899999999999 -0.14415 -0.43512 0.59286 -0.1743 0.47471 -0.13492 0.33909 0.093609 -0.11892 0.31555 0.3845 0.54051 -0.6935899999999999 0.24688000000000002 -0.93476 -0.041963 0.25972 -0.0045590000000000006 -0.1688 0.088309 -1.7161 -0.16327 -0.40159 0.13859000000000002 -0.93499 3.366 1.1006 -0.96759 -0.092375 0.19996 -0.17415 0.1836 0.20686999999999997 0.10418 -0.7353 0.33549 0.11442999999999999 -0.016682 0.23897 -0.036168 0.25008 -0.19502 0.7086600000000001 -0.039504000000000004 0.18456
india -0.20356 -0.8707 -0.19172 0.7386199999999999 0.18494000000000002 0.14926 0.48078999999999994 -0.21633000000000002 0.72753 -0.36912 0.13397 -0.1143 -0.18075 -0.64683 -0.18484 0.83575 0.48178999999999994 0.76026 -0.5038100000000001 0.80743 1.2195 0.3459 0.22185 0.31335 1.2066 -1.8441 0.14064000000000002 -0.99715 -1.1402 0.32342 3.2128 0.42708 0.19504000000000002 0.80113 0.38555 -0.12568 -0.26533 0.055264 -1.1557 0.16835999999999998 -0.8222799999999999 0.20394 0.08923500000000001 -0.60125 -0.032878 1.3735 -0.51661 0.29611 0.23951 -1.3801
550 0.98141 -0.1524 1.3669 -0.37813 0.098665 -0.62303 0.67371 -0.5995 0.027437 -0.40293 -0.8734700000000001 -1.1812 0.51615 -1.0086 0.5725899999999999 -0.38064000000000003 -0.12093 1.3157 -1.0006 -0.24327 0.56399 -0.19213 0.29022 -0.026182999999999998 -0.34165 -0.18111 0.16457 -0.31613 -0.65957 0.019042 1.4936 0.020833 0.41906000000000004 1.2594 0.53635 -0.24466 0.25015 -0.14709 0.0075318 0.21409 0.2158 0.021238999999999997 1.2694 0.16217 -0.75492 0.43545 -0.07933 0.52407 -0.95021 -0.085549
indic 0.096541 -0.50284 0.26411999999999997 0.39183 -0.019562 0.45378 -0.1554 -0.7971699999999999 -0.85334 0.60045 0.13535999999999998 1.0732 1.0285 1.3312 -0.99903 0.05798300000000001 -0.32056999999999997 0.32895 0.62855 1.4431 0.17046 -0.30091999999999997 0.6198100000000001 1.0822 1.0072 0.45182 0.05082 -0.8062199999999999 -0.3546 -1.0355 0.31624 -1.0054 0.6592600000000001 0.036729000000000005 1.3066 0.60719 -0.86166 -0.36494 -0.80135 0.8045100000000001 -0.009664399999999998 0.074519 0.15204 0.7027800000000001 -0.49938 0.5160600000000001 1.4397 1.7693 -0.53899 -0.5089899999999999
liter -0.30615 0.032174 1.4667 -0.43225 -0.13234 0.31613 0.69521 -1.3475 -0.11703 1.2706 0.5425300000000001 -0.67347 1.2559 -0.6694 0.9881700000000001 -0.23549 -0.41239 1.6184 -1.3422 -1.6609 0.24095999999999998 -0.62487 0.67243 -0.13547 -0.09812 0.37006 1.22 0.8525200000000001 -0.079957 1.4782 1.4925 0.23365999999999998 -0.2705 1.9685 0.88692 -0.3366 0.60747 -0.31724 1.1392 0.11213 0.80171 0.68994 0.15744 -0.051257000000000004 -0.15403 -0.08355900000000001 0.19649 0.21913000000000002 0.94634 -0.16097
want 0.13627 -0.054478 0.3703 -0.41573999999999994 0.60568 -0.42728999999999995 -0.50151 0.35923 -0.49154 0.21827 -0.15192999999999998 0.52536 -0.24206 0.023875 0.8225 1.089 0.98825 -0.17803 0.7780600000000001 -1.0647 -0.28742 0.50458 0.21611999999999998 0.65681 0.34295 -2.1084 -0.82557 -0.31966 0.8756700000000001 -1.0679 3.3802 1.2084 -1.272 -0.15921 -0.25237 -0.2696 -0.18756 -0.35523000000000005 0.084172 -0.56539 -0.24081 0.15925999999999998 0.3287 0.54591 0.29896999999999996 0.18947999999999998 -0.57113 0.17399 -0.19338 0.5192100000000001
cpo -1.0037 -1.5827 -0.5046 2.5653 -0.30846999999999997 -1.1653 0.38609 -0.21744000000000002 0.9656799999999999 1.2878 1.0669 0.34229 0.7994 0.39125 0.81313 0.38194 -0.90327 0.24477 -0.34444 -1.2531 0.99456 -0.5137 0.9335200000000001 -0.52194 -0.83742 1.3648 -0.031761000000000005 0.32796 -0.095506 0.26689 1.0178 -0.087774 0.44367 1.5594 -0.11445 -0.44275 -0.36202 -1.1941 0.27715 -0.12976 -0.046094 0.9186700000000001 -0.72636 -0.50898 -0.63338 0.18779 -0.35035 0.1575 -0.076503 -0.31354
attract 0.66074 0.25971 0.71742 -0.37451999999999996 0.13995 -0.42594 -0.75651 -0.14226 -0.052998 0.8356 -0.032504000000000005 -0.33091 1.444 -0.1027 -0.023763999999999997 0.34381999999999996 1.1588 0.254 -0.17742 -1.1727 0.68352 -0.6826300000000001 -0.42633999999999994 0.53677 -0.12975 -0.59878 -0.10232000000000001 -0.9352600000000001 -0.06657300000000001 -0.27974 2.4681 1.9652 0.14509 -0.94076 -0.24377 -0.057047 -1.0490000000000002 0.091018 -0.85925 -1.0928 -0.33048 -0.037898 0.2315 0.47138 0.66613 -0.51874 -0.35963 0.04465 0.0065679 0.28264
end -0.04116 0.22243000000000002 -0.11458 -0.33628 0.038872000000000004 -0.066803 -0.58309 -0.19971 -0.5108699999999999 -0.29036999999999996 -0.49177 -0.13533 -1.0737 -0.4156 0.8183699999999999 0.47902 0.07886900000000001 -0.60318 -0.5732 0.065613 0.21122 -0.20911999999999997 -0.27305 -0.21331999999999998 -0.077237 -1.4695 0.46413000000000004 0.1222 0.80235 0.25795999999999997 3.7452 0.14293 -0.51556 0.34662 0.12782000000000002 -0.21896 0.15115 -0.2969 -0.37945 -0.41931 -0.74006 -0.10499000000000001 -0.31756 -0.23893000000000003 -0.40606 0.24247 0.5583199999999999 -0.1801 -0.37332 -0.18039000000000002
thing -0.0086751 0.20393 -0.2809 0.038613 0.98161 -0.0065281 -0.23104 0.12747 -0.12763 0.45125 -0.54445 0.43703000000000003 -0.83501 0.33646 1.054 0.31061 0.8953899999999999 0.35598 0.0463 -0.61359 -0.75673 0.4372 0.041877 0.40898 1.0622 -1.9429 -1.5851 0.46778000000000003 1.3873 -0.76793 2.7460000000000004 0.44763000000000003 -0.2672 -0.2175 -0.27831 -0.12655 -0.069537 0.28552 0.22963000000000003 -0.49098 -0.57948 0.10878 -0.23209000000000002 0.64553 0.027520999999999997 0.44922 0.048379000000000005 0.085849 0.14412 1.0824
polic -0.032331 -0.2921 0.23356 -0.42555 0.070009 -0.0027644 0.61335 0.10197 -0.25729 0.19483 0.26947 0.2798 0.46567 -0.047462 -0.19794 -0.032583 -0.21236 0.22643000000000002 0.30645 0.42858999999999997 -0.080571 -0.10275999999999999 -0.93337 -0.35153 0.57577 0.5285 0.60109 -0.5200100000000001 -0.0055118 0.44515 -1.2998 -0.30644 0.20287 -0.093076 -0.010282 0.1993 -0.25044 0.00075642 -0.058524 0.49201000000000006 -0.013211 0.12661 0.08542000000000001 0.049179 -0.44725 -0.22771999999999998 0.54515 -0.037578 -0.32177 0.10527
travel 0.78945 1.1267 0.094963 -0.085176 -0.8821100000000001 -0.82305 -1.2444 -0.14937 0.8046800000000001 -0.45126000000000005 -0.018175 0.38926 0.18674000000000002 0.10705 0.76963 0.4768 -0.28126 -0.38387 -0.08178300000000001 -0.22716 0.8124399999999999 0.019555 -0.19809000000000002 1.0188 0.12297999999999999 -1.4167 0.18506 -0.1265 0.40724 0.17462 2.8151 1.2231 -0.26994 -0.068899 -0.15436 -0.041211000000000005 -0.3162 -0.11241 -0.7093 0.38703000000000004 0.2446 0.53578 1.079 0.17798 -0.18645 -0.081237 -0.077889 0.37224 0.12708 0.079093
egyptian 0.53358 1.05 -0.32885 -0.13417 0.65501 -0.7838 -0.53659 -0.069053 -0.1709 0.19219 0.2776 -0.012688 0.055352 0.93463 0.088418 0.2454 0.11900000000000001 -0.30091999999999997 0.03612 1.3588 0.59818 0.9158700000000001 0.47273000000000004 -0.23173000000000002 -0.22307 -1.3903 -0.32648 -0.18273 -0.60165 0.8073 2.1149 -0.59525 -1.0128 0.8383700000000001 0.58167 0.45145 -0.0056295 -0.19045 -0.82086 1.2401 0.15742 0.31051999999999996 0.44705 -0.1217 0.8758 -0.57345 -0.97534 1.1178 0.089533 -1.8977
answer 0.26094 0.042302 0.22624 -0.017478 0.80219 -0.049743 0.015314 0.50027 -0.4339 0.037552999999999996 -0.76848 0.29197 -0.23692 -0.10067000000000001 0.9306700000000001 0.12202 -0.19004000000000001 -0.38295999999999997 0.4168 -0.70212 -0.01708 0.4918 0.50956 0.32299999999999995 0.9735799999999999 -1.8345 -0.5331899999999999 0.028191 0.32527 -0.62048 2.3189 -0.024836 -0.71911 -0.73944 -0.020636 -0.5763 0.26205 0.033096 -0.052199 -0.47668999999999995 0.32949 -0.021332 -0.16153 0.8383700000000001 0.052265 0.35468 0.29417 1.1374 0.1407 0.68197
gate 0.39943 0.9245700000000001 0.4354 0.050842 0.74144 -0.64553 0.030811 0.27328 0.12789 -0.6150800000000001 -0.13984000000000002 -0.35889 -0.63598 0.29003 -0.31856 0.8862 0.43043000000000003 0.20614000000000002 -0.95662 -0.19860999999999998 0.99297 -0.37111 -1.1556 0.30762 0.094729 -1.0382 -0.1817 0.6089 0.026306 -1.028 1.7055 -0.25317 0.36785999999999996 0.2815 -0.029976999999999997 0.13704000000000002 1.0567 -0.46758 -0.22703 0.61702 0.08017200000000001 -0.16002 -0.37312 0.20701 -0.152 -0.56558 0.23156999999999997 -1.4759 0.25872 -1.0090000000000001
pizza 0.62143 -0.49645 -0.69599 0.19473 1.0616 0.14227 -0.79524 0.19404000000000002 0.0071687 0.14645999999999998 -0.61261 0.0037310999999999998 0.41935 1.0381 0.16910999999999998 -0.53342 -0.52508 0.7962899999999999 -0.029127999999999998 -0.44911999999999996 1.0138 -0.59214 0.17643 1.5506 -0.96916 -0.42896000000000006 -0.9266399999999999 0.43301000000000006 1.2915 -0.8083600000000001 1.3359999999999999 0.24572 -0.11799000000000001 2.0015 -0.27431 0.17803 -0.31508 0.8458200000000001 0.7741899999999999 0.45243 0.73485 0.44473 -0.77466 0.43471000000000004 0.53486 0.98216 -0.70731 -0.48557 0.16452999999999998 0.65013
lao 0.014368 0.026604000000000003 -0.22034 0.82773 -0.51637 -0.5969800000000001 0.19032000000000002 -0.089534 -0.80492 -0.9234600000000001 0.95244 -0.22091999999999998 1.3005 -0.19079000000000002 -0.14625 -0.49713 -0.70467 0.97949 1.1669 1.4374 -0.70205 -0.18091 0.19172 -0.09664 0.68665 -0.58626 -0.018815000000000002 -0.58908 -1.2154 -0.036552 1.2039 0.2331 -0.78713 1.3544 -0.8806299999999999 0.48115 -0.64775 0.013527 -0.35795 0.31455 -0.039027 0.07483 0.19475 -0.61315 0.84521 -1.0738 -0.34576 0.51795 0.17941 -1.272
chines -0.11017 -0.46195 -0.10177 0.37746 -0.90038 -0.1538 0.6079100000000001 0.27381 -0.47948999999999997 0.10005 -0.20229 0.19864 1.29 0.84378 -1.0159 -0.10853 -0.33687 -0.11538 0.8405600000000001 -0.3843 0.26639 -0.28057 0.30195 0.18374000000000001 0.35654 0.79709 -0.12399 0.23325 -0.51249 -0.10686 -0.5956199999999999 0.25292 0.058223000000000004 0.47543 -0.11413 0.061499 -0.23004000000000002 -0.3556 -0.66425 0.06659 -0.11585 0.005028800000000001 -0.035273 0.47035 -0.25619000000000003 -0.37546999999999997 -0.12600999999999998 0.22876999999999997 0.6973699999999999 -0.77017
ex-boyfriend 0.063292 0.049362 -0.40075 -0.2163 0.19621 1.0307 0.037885 0.48041999999999996 -0.13537000000000002 0.7269800000000001 0.27767 0.8613700000000001 -0.39411 -0.028661000000000002 0.32525 -0.13732 -0.41215 0.14207999999999998 0.5022 0.7670100000000001 -0.3614 0.99649 -0.15582000000000001 0.6753899999999999 0.75793 -0.33566 0.9082 0.043601 0.41036000000000006 -0.29606 -0.49188999999999994 -0.28855 0.37617 0.15305 -0.134 0.5944 -0.2776 -0.46512 -0.039008 -0.58444 0.58783 0.33275 -0.8084600000000001 -0.16897 0.59009 -0.9368200000000001 0.65185 -0.8510700000000001 0.007148399999999999 0.20625
befor 0.28267 -0.47386000000000006 0.36152 -0.6198899999999999 -0.42581 -0.67823 0.37945 0.63689 0.22291 0.11074 -1.0422 -0.027302999999999997 -0.66619 0.38166 -0.19537000000000002 -0.16459000000000001 -0.2445 -0.69195 0.71873 0.59451 -0.30932 0.11987 0.027844 0.36685999999999996 0.22346999999999997 0.71842 -0.12003 0.48691999999999996 0.60982 0.045905 -0.6325 -0.054809000000000004 0.39409 1.3236 -0.28251 -0.4874 -0.097165 -0.6182 -0.40457 -0.36785999999999996 -0.12464000000000001 -1.0233 -0.23423000000000002 1.1644 -1.0138 -0.8233299999999999 1.0599 0.046529 -0.39736 0.18265
wrong 0.13423 -0.70572 0.25651999999999997 -0.70702 0.66891 0.078309 -0.085091 0.1273 -0.25349 0.0039005000000000003 -0.47367 0.45491000000000004 -0.85656 -0.16408 0.54799 0.36329 0.33482 -0.25919000000000003 -0.012830000000000001 -0.56152 -0.54376 0.52644 0.47671 0.29848 1.2667 -2.3394 -0.9365700000000001 0.6793 0.9352600000000001 -0.9305100000000001 2.2586 0.017803 -0.2772 -0.57896 -0.31235 -0.51586 0.37149 0.24718 0.0073157 -0.25879 -0.036868 -0.07356900000000001 0.36549 0.9022899999999999 -0.019806999999999998 0.02628 -0.078312 0.43723 0.90636 0.51193
ssd -0.7729199999999999 -0.49335 1.337 0.58811 -0.64691 0.0034314999999999997 0.8382200000000001 0.00039332 0.034806000000000004 0.60041 0.54677 -0.34023000000000003 -0.014437 -0.17764000000000002 0.18905999999999998 0.0026972 -0.5253899999999999 1.1475 0.71999 -0.47285 -0.57943 -0.9330200000000001 -0.9904299999999999 0.76325 0.19232 0.48793000000000003 0.27398 -0.25124 0.35719 0.07721 -0.014018000000000001 0.041045 0.32288 0.21106 0.25621 1.1918 0.23824 -0.75649 0.8460200000000001 -0.053284000000000005 0.77374 0.14239000000000002 -0.63731 0.23398000000000002 0.085748 0.26349 1.0091 0.6913 0.28579 -0.22873000000000002
law -1.2328 -0.11042 -0.77951 -0.5061399999999999 -0.06815 0.69457 0.18967 -0.76766 0.0054416 -0.36045 -0.16309 0.59114 -0.14221 -0.33803 0.22355999999999998 0.0015343 -0.012043 -0.59315 0.6207 0.087477 0.7218 0.31269 -0.49196000000000006 -0.14968 -0.52249 -2.9321 0.13136 -1.0542 -0.25628 -0.27729000000000004 2.8322 -0.80952 -1.2425 -1.3874 -0.055187 -0.48155 0.17897000000000002 -0.22712 0.52925 0.47739 -0.5584100000000001 0.25676 1.0353 1.0491 -0.9564799999999999 -0.033833999999999996 -0.43218999999999996 0.10342 0.20543000000000003 0.36536
parallel 0.6047 0.28991999999999996 0.13599 0.28904 0.10135 0.29771 0.56017 -0.47544 0.5108 -0.45413000000000003 -0.37987 -0.37288000000000004 -0.69034 0.81623 -0.76675 -0.41972 0.30367 -0.27925 0.058661000000000005 -0.6584800000000001 0.48316000000000003 -0.9035 -0.22783 0.6714899999999999 0.46068000000000003 -0.62545 -0.11799000000000001 0.13912 -0.08946799999999999 -0.42911000000000005 2.6744 -0.49218999999999996 -0.12993 -0.42944 -0.094976 -0.09501799999999999 -0.22595 0.56099 -1.2649 0.75966 -0.11932000000000001 -0.22316999999999998 0.12405 0.07321 -1.0887 -0.1004 1.2412 -0.5421199999999999 -0.25682 -0.63967
attempt 0.5323 -0.70044 0.37422 -0.31529 0.012028 0.5093300000000001 -0.23546 0.72083 -0.1387 0.5066 -0.38464 0.12579 -0.68992 0.38425 -0.1367 0.083163 0.62144 -1.0586 -0.75507 -0.0057474 0.53155 0.097558 -0.41206000000000004 -0.40328 0.31674 -2.2257 -0.043075999999999996 -0.83749 0.93522 -0.21468 2.4972 0.2487 -1.7374 -0.48367 -0.051459000000000005 0.2463 -0.25872 -0.20222 -0.43626000000000004 -0.4603 -0.11058 -0.019738 0.08974299999999999 -0.35528000000000004 0.15794 -0.24600999999999998 0.30675 0.02953 0.63595 -0.59635
rousey -0.14873 -0.21259 -0.5190100000000001 0.40263000000000004 -1.8659 0.60992 1.1304 1.3602 0.50556 0.26713000000000003 0.19777999999999998 -0.39293 0.26004 -0.70612 -0.070395 -0.36484 -0.06677000000000001 0.57713 -0.1604 -0.52913 -0.8055 0.89333 0.36049000000000003 -0.6975 0.64351 0.13877 -0.29636 0.4239 -0.27086 0.15553 -2.0901 -0.04741 -0.24581 -0.8174399999999999 0.052247 -0.03601 0.5438 0.5729 -0.40651 -0.61562 0.4214 0.16179000000000002 0.28581999999999996 -0.9011100000000001 -0.13964000000000001 -0.007457899999999999 0.0079714 -0.78864 -0.8780700000000001 0.64774
third -0.29329 0.24741 0.38114000000000003 0.66685 0.828 0.6029399999999999 -0.9125700000000001 0.52368 0.14178 -0.30512 0.14389000000000002 -0.6499 -1.1039 0.2591 0.51173 -0.69929 -0.04061 -0.8788600000000001 -1.2485 0.19964 -0.25411999999999996 -0.58236 -0.31966999999999995 0.041768 0.08808300000000001 -1.3633 0.26619 -0.66122 -0.053167 -0.09926 3.3406 0.24938000000000002 0.11115 0.66586 0.4321 -0.30615 0.44014 0.8075899999999999 0.017952000000000003 -0.51661 -0.25567 -0.26593 -0.16342 -0.53087 -0.6292800000000001 0.29725999999999997 0.28643 -0.36534 0.26795 -0.17126
okha 1.4284 0.48423 -0.045093 -0.60218 -0.6277 -0.34542 0.13042 0.6834100000000001 -0.39665 -0.21631999999999998 -0.42776000000000003 -1.0202 0.7956300000000001 -0.9476899999999999 -0.8011699999999999 -0.081308 0.5399 0.049288 0.5724600000000001 0.7561100000000001 -0.71842 0.4037 -1.1362 -0.076206 -0.12272000000000001 0.64691 0.47733000000000003 0.76148 -0.13812 -1.2216 -0.67879 0.44448999999999994 0.68838 0.0083711 0.21886 -0.08966 0.0043372 -0.26627 1.5928 1.3419 0.035227 0.1506 1.3019 -0.32456999999999997 -0.75416 0.28638 -0.0528 0.8872700000000001 -0.26116 -0.024534
greek 0.47579 0.85731 -0.53654 -0.32309 0.5503 0.1877 -0.33495 -0.12700999999999998 -2.0501 -0.2584 0.83052 0.53798 0.93145 0.58362 0.40926 -0.25876 0.0772 0.33428 -0.58827 0.52007 -0.0265 -0.5697399999999999 -1.0749 0.3361 0.75392 -1.3767 -0.32555 -0.35715 -1.1027 0.31586 2.5088 -0.24754 -0.25209000000000004 0.43138999999999994 -0.077172 0.5048600000000001 0.07714 -1.0469 -0.41801000000000005 0.42928999999999995 0.13491 -0.031975 0.75488 -0.26409 0.14745 0.54562 -0.19292 1.3519999999999999 0.5957100000000001 -1.9645
maintain 0.093956 0.17087 0.15878 -0.34597 0.4617 -0.73592 0.30055 0.23510999999999999 0.5003 0.044902 0.80243 0.14297 0.094163 -0.20711 -0.8022199999999999 0.79523 0.40051 -0.30106 0.86597 -0.6369600000000001 -0.13492 -0.020222 -0.45324 -0.39029 -0.22205 -1.032 0.15805 -0.37753000000000003 0.56819 0.68286 3.3297 0.9887600000000001 -0.49295 -0.48694 -0.096804 -0.1229 -0.28526999999999997 0.11429 -0.45076000000000005 -0.34692 -0.026725 -0.7085 0.5272399999999999 0.33074000000000003 -0.22614 -0.21800999999999998 -0.17173 0.30543000000000003 -0.18022 0.039234
green -0.5767 0.8695299999999999 -0.49108 -0.1078 0.65377 0.32548 -1.3259999999999998 -1.0114 -0.20658 -0.79937 -0.41455 0.08476900000000001 0.25426 -0.10999 -0.6469600000000001 0.17882 0.68277 -0.019661 -0.59745 -1.0414 -0.55979 -0.18503 0.49271000000000004 -0.53623 -0.63925 -0.9126700000000001 0.15709 1.3784 0.45686000000000004 -0.76237 2.5792 -0.22079000000000001 -0.59114 -0.17395 0.27835 0.30161 -0.12137 0.21278000000000002 0.23306 -0.74012 0.12318 -0.028114999999999998 -0.42100000000000004 -0.6016699999999999 0.71802 0.19434 -0.11682000000000001 -1.1335 0.49008999999999997 -0.020496
enter 0.54168 0.23456999999999997 0.30108 -0.016249 0.33801 -0.65636 -0.43468999999999997 0.94985 0.31561999999999996 -0.38323 0.46205 -0.1339 0.10683 0.33141 0.33374000000000004 1.0298 0.41122 -0.26741 0.12916 -0.16128 0.5411199999999999 -0.12117 -0.071048 1.0491 -0.14552 -1.3753 0.26647 -0.55895 0.22428 -0.5915199999999999 2.5707 0.33816999999999997 -1.1152 -0.40175 0.25685 0.1098 0.23053 -0.20829 -0.39092 -0.29161 -0.09068999999999999 -0.57723 0.38933 0.09712799999999999 -0.15637 -0.31722 0.26853 -0.42955 -0.19876 -0.48200000000000004
ethernet 0.091793 0.7765 1.5247 1.8148 -0.54613 0.8654799999999999 0.18714 -1.2745 -0.13101 0.43728999999999996 0.66687 0.9422200000000001 -0.09775 0.83798 -1.0701 0.33878 -0.91206 0.87329 0.54438 -0.6207 0.9421299999999999 -0.6232800000000001 -0.79262 1.5884 0.63913 -0.0461 1.7976 -0.35148 1.1377 -0.15662 0.76513 0.14097 0.24145999999999998 -0.00034344 0.5666 0.091587 -0.17325 0.59495 -0.7208399999999999 1.1841 1.6689 0.5523600000000001 -0.026756 1.1276 -0.8083600000000001 -0.20364000000000002 0.56405 -0.50354 1.0765 -0.19613
first -0.14168 0.41108 -0.31227 0.16633 0.26124 0.45708000000000004 -1.2001 0.014922999999999999 -0.22779000000000002 -0.16937 0.34633 -0.12419000000000001 -0.6571100000000001 0.29225999999999996 0.62407 -0.57916 -0.33947 -0.22046 -1.4832 0.28958 0.08139600000000001 -0.21696 0.0056613 -0.054199000000000004 0.098504 -1.5874 -0.22866999999999998 -0.62957 -0.39542 -0.080841 3.5949 -0.16872 -0.39024000000000003 0.026912000000000002 0.52646 -0.022844 0.63289 0.62702 -0.22171 -0.45045 -0.14998 -0.27723000000000003 -0.46658 -0.44268 -0.43691 0.38455 0.1369 -0.25424 0.017821 -0.1489
order 0.5959399999999999 0.027426 -0.37212 -0.43777 0.90033 -0.10550999999999999 0.3488 0.34644 0.11622 -0.46675 0.40657 1.0254 -0.072136 -0.12719 0.20944000000000002 0.22438000000000002 -0.32991 -0.8975299999999999 0.061887 -0.78079 0.55576 -0.72526 -0.32109 -0.090179 -0.49251000000000006 -1.4597 -0.19504000000000002 -1.1512 0.4673 0.13954 3.3605 0.096328 -1.2275 -0.45464 0.2279 0.2145 0.50552 -0.40703 -0.2411 0.15025 0.063791 -0.34117 0.22175 0.25811999999999996 -0.397 0.48599 -0.17694000000000001 -0.37738 0.18143 -0.27109
blind -0.42654 0.15652 -0.19 -0.7172 0.38043000000000005 0.39041 -0.018147 0.10954000000000001 0.5352399999999999 0.7592 0.21393 0.33033 0.1367 0.41931 -0.17637 -0.080714 0.27665 0.5101100000000001 -0.04094 -0.096546 -0.56095 0.8779399999999999 0.21977 0.52283 0.46698 -1.3163 -0.38218 -0.11452000000000001 0.17745 -0.22793000000000002 1.7405 -0.17327 -0.20728000000000002 -0.44314 0.052295 0.091917 0.49086 -0.17422 0.0077834 -0.42957 -0.13821 -0.15012999999999999 -0.019283 0.9099299999999999 0.31531 -0.34269 -0.27719 -0.88039 0.48498 -0.4382
fetus 1.1497 -0.29468 0.004347600000000001 -0.96191 0.5553600000000001 2.8108 0.33058000000000004 0.052256 1.9442 0.6756 0.9203600000000001 -0.77579 1.1305 1.2635 0.22685999999999998 0.74903 -0.56389 -0.74687 0.68494 0.5895600000000001 -0.6087199999999999 0.7772100000000001 0.1953 -0.27181 0.69821 -0.7066600000000001 -0.013343 0.45507 1.0262 -0.026307999999999998 0.60987 -0.70526 -0.86221 -0.5279699999999999 0.081495 -0.26486 0.79611 0.16112 0.63455 -0.5108199999999999 -1.1621 -0.6668 0.40494 0.33586 -0.24181 -0.60874 0.38539 -0.90461 0.29699000000000003 -0.034221
telecom 0.35841 -0.6634 0.99455 2.0025 -0.47348 -0.091699 -0.43377 -0.5321199999999999 0.13659000000000002 -0.21619000000000002 1.0023 0.35735 -0.62357 0.079823 -0.56757 0.71677 -0.9919600000000001 0.038051999999999996 -0.02682 -0.3847 1.1022 -0.17053 -0.8649 0.039375 -0.36783000000000005 -0.72526 0.14834 -0.70035 -0.70526 0.8546799999999999 2.2088 0.67374 0.42373999999999995 1.9822 -0.50913 -1.6634 -1.0501 0.10835 -0.0099325 -0.6668 0.76284 -0.098321 0.6443399999999999 0.36716 -0.53847 -0.039738 -0.56225 0.19022 0.46453 -0.40963
consent 0.43356000000000006 -0.00046386 -0.71519 -0.18902 0.43188000000000004 1.2746 0.20926 0.6656 0.14705 -0.06500399999999999 0.73461 0.6408699999999999 0.73202 -0.39383 0.32233 0.2299 -1.0483 -0.86165 1.0499 0.12737 0.35176 0.31192 0.20659 0.009016 -0.59516 -1.1149 0.46013999999999994 -0.8551 0.062455 -0.3701 1.765 0.030770999999999996 -1.5141 -1.0329 0.3967 -0.29506 0.8735299999999999 -0.32045999999999997 -0.30362 -0.43268 0.34504 -0.7331300000000001 0.15917 0.66886 -1.3478 -0.3999 -0.43873 0.57826 0.10697000000000001 0.19307
gettysburg 0.013812999999999999 0.7061 -0.077363 -0.80187 -0.47216 -0.41373000000000004 -0.19212 0.25089 -0.10048 -1.7594 -1.8921 -0.55185 0.090948 -1.6083 -0.9849899999999999 -0.75371 -0.46048999999999995 0.69931 -0.76315 0.79411 0.54957 -0.38443 -0.44815 -0.9287700000000001 0.29261 -0.6955399999999999 -1.2939 -0.49463 0.56875 -0.48073 -0.19307 -0.015818000000000002 -0.5909 -0.7039300000000001 -0.17355 0.22241999999999998 0.08189099999999999 -0.70402 -0.28779 0.25856 -0.27841 -1.2287 -0.79962 -0.017141999999999998 -0.018972 0.025072 0.38618 -0.25126 -0.94639 0.57093
veri -0.58611 -0.52961 -0.97391 0.075393 -1.0696 -0.44798999999999994 0.80311 -0.0064628 1.1573 0.65751 0.5633600000000001 0.56529 0.69313 0.52817 -0.67684 -0.096522 -0.62433 -0.071035 0.55197 0.41685 0.18431 -0.066434 0.31465 -0.18064000000000002 -0.48673999999999995 0.85077 -0.073604 0.022903 0.34954 0.07998 -1.3688 -0.23683 -0.5878399999999999 0.81552 -0.39776 -0.325 0.80308 -0.20738 -0.52254 0.2508 0.46811 -0.73626 0.30135 -0.56406 0.41157 0.3685 -0.38276 -0.22896 -0.0076579 0.6019899999999999
london 0.032886 0.9963700000000001 -0.6975 -0.58375 0.053403 -0.35758 -0.96735 -0.048156 -0.23417 -0.31642 -0.080246 0.007512100000000001 -0.69211 -0.19357 0.040527999999999995 0.74492 0.079019 -0.13893 -1.5938 0.33824 2.5535 0.87576 -0.1597 0.8576299999999999 -0.68158 -1.3948 0.13189 0.10128999999999999 -0.7461 0.67386 2.5619 -0.19922 0.76751 -0.4867 0.39738 -0.6253 0.6350399999999999 -0.1989 -0.0953 -0.22471999999999998 0.61698 -0.21968000000000001 0.2584 -0.39371 0.47571 0.57736 -0.55713 -0.6259 0.6078899999999999 -0.30978
japan -0.31739 -0.14032999999999998 0.32292 1.072 0.33008000000000004 0.39405999999999997 -0.016682 0.076903 -0.7459100000000001 -0.31521 1.0033 -0.12659 0.063252 0.6400600000000001 0.70721 0.84303 -0.6883199999999999 0.47213999999999995 -0.6600199999999999 0.7396199999999999 1.1116 -0.89428 -0.90364 -0.47281000000000006 0.8852899999999999 -2.0194 0.30623 -0.31661999999999996 -0.44423 -0.5213899999999999 3.0287 0.70315 0.92315 0.52263 -0.62674 -0.58995 -0.15875999999999998 -0.078332 -1.0794 -0.7155199999999999 -1.2764 -0.85554 1.2827 -1.2134 1.0125 0.40329 -0.16276 0.9911700000000001 0.031016000000000002 -0.35431
tennesse -0.30215 -0.027233999999999998 0.35415 0.14354 0.15822 -1.0504 -0.29694 0.43543000000000004 -1.3484 0.55599 -0.26624000000000003 -0.53822 1.1575 0.28797 -0.6505 0.22174000000000002 -0.47534 0.294 0.84946 0.8448 -0.32681 -0.49388999999999994 -0.26641 0.10730999999999999 -0.34415 0.2301 0.60658 0.61149 -0.32961999999999997 -0.5282 -1.4237 -0.13734000000000002 0.36878 -0.40417 0.40197 0.20040999999999998 -0.6897399999999999 0.70019 -0.34699 0.16765 -0.27493 0.584 -0.5452899999999999 -0.34025 0.10542 -0.015746 -0.35206 0.019275 -0.065309 -0.010085
digest -0.62679 0.066311 0.23759 0.41397 0.043445 -1.1036 -0.3275 -0.41594 0.38487 -0.13915 -0.15967 0.56923 0.17768 0.53888 1.0929 0.60239 -0.51467 -0.09015 0.14633 0.021457 1.2496 -0.79095 1.149 0.85324 0.49716000000000005 0.052895000000000005 -1.4081 -0.5382399999999999 -0.13065 0.66567 1.062 -0.054192 0.47573999999999994 0.020617 -0.89875 0.011399 -0.5413 0.52231 0.8016800000000001 -0.70172 0.6228199999999999 -0.73592 -0.16142 0.68323 0.61058 1.3861 0.43768999999999997 0.61241 0.6460899999999999 0.4968
rostov 0.30212 0.59311 -0.53518 0.78338 -1.2787 -0.49157 0.69735 1.3502 -0.9357 -0.22884000000000002 0.31416 -0.37429 0.68366 -0.022094 -0.42788999999999994 -0.2314 -0.8544299999999999 0.5383100000000001 -0.29733000000000004 1.6059999999999999 -0.44935 -1.1262 0.09275599999999999 0.35996999999999996 -0.70018 -0.9530299999999999 -0.13005 0.43246999999999997 -0.17694000000000001 -1.3091 -0.039264999999999994 0.16022999999999998 0.49993000000000004 0.026115 0.68479 0.44485 -0.2688 0.23778000000000002 0.86021 1.0372 -0.12032999999999999 0.6913100000000001 0.72029 -1.0170000000000001 -0.10919000000000001 0.12864 0.45926000000000006 0.6723 -0.19034 0.17394
fix 0.25794 -0.080829 1.2428 0.21179 -0.80252 0.37306 0.26306999999999997 0.14003 -0.20332999999999998 -0.36922 -0.51223 0.60502 -0.60113 0.56818 0.9707399999999999 0.82834 -0.17540999999999998 -0.056945 1.1026 -0.8421 0.19053 -0.5529999999999999 -0.47206000000000004 0.19752999999999998 0.65228 -1.1911 -0.8633299999999999 -0.22841 1.0307 -0.25240999999999997 2.0276 0.36084 -0.8726799999999999 0.15841 0.35035 0.96793 0.49106000000000005 -0.21946 0.9657600000000001 -0.60375 -0.11899000000000001 -0.061461 0.61912 0.32318 0.17263 0.77286 0.9176799999999999 0.9978899999999999 1.0579 -0.024975999999999998
avocado 0.073656 -0.9320200000000001 -0.90765 0.56123 0.6282 0.28948 0.030605 -0.091615 -0.52877 -0.15366 -0.99671 -0.32089 1.4742 0.17404 0.094036 -0.9157299999999999 0.14759 0.5203399999999999 0.9201299999999999 -1.0078 -0.45975 -1.5347 0.73122 -0.027417 -1.0088 0.6946100000000001 -0.16309 1.0651 0.76842 -0.69002 0.68235 -0.60627 -0.80801 1.1565 0.19782 0.55267 -1.4392 0.40031 1.6497 -0.81206 -0.83825 0.072922 -0.21527 -0.9028200000000001 0.64018 1.0397 0.39799999999999996 -0.22253 0.44073 0.27499
, 0.013441 0.23681999999999997 -0.16899 0.40951 0.63812 0.47708999999999996 -0.42851999999999996 -0.5564100000000001 -0.364 -0.23938 0.13001 -0.063734 -0.39575 -0.48162 0.23290999999999998 0.090201 -0.13324 0.078639 -0.41634 -0.15428 0.10067999999999999 0.48891 0.31226 -0.1252 -0.037512000000000004 -1.5179 0.12612 -0.024419999999999997 -0.042961 -0.28351 3.5416 -0.11955999999999999 -0.014533 -0.1499 0.21864 -0.33412 -0.13872 0.31806 0.70358 0.44858000000000003 -0.080262 0.63003 0.32111 -0.46765 0.22785999999999998 0.36034 -0.37818 -0.56657 0.044691 0.30391999999999997
better -0.1209 -0.16821 0.24099 -0.30287 0.43578 -0.38366999999999996 -0.55203 -0.28681 -0.10092000000000001 0.47768999999999995 0.28969 0.29549000000000003 -0.44073999999999997 -0.13494 0.26022 0.45371000000000006 0.5374899999999999 0.061220000000000004 0.24366 -0.87761 -0.5624100000000001 0.24927 0.17941 -0.016943 0.5797399999999999 -1.3546 -0.53161 -0.26450999999999997 0.68211 -0.30482 3.7943 0.96326 -0.073896 -0.41031999999999996 0.24478000000000003 -0.14579 -0.086789 0.995 0.049928 -0.60302 -0.36585 -0.10114 0.40423000000000003 0.25951 0.08792699999999999 0.06196 0.075266 0.12755 0.066461 1.1163
onc -0.5708 0.07219 1.0182 1.1721 -0.89702 -0.39655 1.2259 0.12953 0.27014 -0.21141 0.44583 -0.38332 0.66205 0.67388 -0.22326999999999997 0.025575 -0.9266399999999999 0.37998000000000004 0.45987 0.62752 -0.7117399999999999 0.17165 0.18011 -0.4092 0.41835 1.1745 -0.11514 -0.62292 -0.01738 0.030095 -0.9268700000000001 -0.24026999999999998 -0.6724 0.022157 -1.0084 0.11660999999999999 0.5642699999999999 -0.51297 0.30104000000000003 0.16474 0.36914 -0.32854 0.13127 0.1317 -0.50208 0.20488 0.23606999999999997 0.48641 -0.44496 0.45718000000000003
versus -0.8932899999999999 0.51931 0.21936999999999998 -0.056685 0.65613 0.72241 0.52095 -0.8095600000000001 -0.2132 0.41117 0.20360999999999999 -0.61736 0.10553 -1.0687 0.27803 -0.17711 -0.10812000000000001 0.22073 -1.0112 0.35411 -0.8106300000000001 -0.38554 0.012425 -0.0198 -1.0039 -0.47379 0.17002 -0.19732 0.83339 0.61763 1.5297 1.0187 0.42968999999999996 -0.005372999999999999 -0.13302999999999998 -0.41698999999999997 -0.32578 -0.19937 -0.43877 -1.2763 0.45976000000000006 -0.12192 0.028831 0.5859300000000001 -0.5748 -0.12819 0.11193 0.15424000000000002 -0.45687 0.42877
anil 0.16329000000000002 -1.6059 -0.1898 0.9280799999999999 0.6588 0.99418 1.0247 0.012414 1.0291 -0.10951 0.29002 1.5275 -0.94334 0.96344 -0.2667 -0.041463 0.21764 0.57321 -0.9962200000000001 -0.017199000000000002 1.0821 0.76771 0.83137 -0.035587 1.3367 -0.40533 0.3647 -1.4542 -0.9194399999999999 0.93809 0.24998 0.71286 0.60647 1.9328 0.5433 0.08796699999999999 -0.47645 0.49756000000000006 0.23439000000000002 0.9860200000000001 -0.70518 1.6928 -0.90697 0.29444000000000004 -0.06015 0.43363 -0.1279 -0.55872 0.4769 -0.21086
typescript 0.35322 0.19197 -0.045663999999999996 -0.90799 0.0044827 0.57571 -0.092146 -0.5393899999999999 -0.029035000000000002 0.5052800000000001 -0.24256999999999998 0.07759400000000001 0.4771 0.9448200000000001 0.35979 -0.2852 -0.54061 -0.18789 0.89922 0.25153000000000003 -0.12232 -0.71865 -0.12193 -0.23095 0.5686399999999999 0.67045 -0.31401 0.8944700000000001 -0.38139 -0.19395 -0.63531 -1.3092 0.14085999999999999 0.41936999999999997 0.084905 0.067872 0.79025 0.74173 -0.6513899999999999 -0.31887 0.38456 -1.0594 -0.009272399999999998 0.42244 -0.9434100000000001 0.11370999999999999 0.58999 0.71128 -0.34379 -0.50471
cse -0.309 -0.92775 -0.031217 0.41303 -0.12516 -0.5947600000000001 0.61732 -1.092 -0.004353899999999999 -0.010709999999999999 0.66399 0.33910999999999997 0.18564 0.005642 -0.1151 0.38306999999999997 -0.50013 0.89641 0.24495 -0.17928 0.22159 0.43675 0.3464 -0.0089146 -0.28352 0.65483 0.3795 -0.044019 -1.1878 0.12259 -0.30083000000000004 -0.2959 -0.32363000000000003 -0.012372 0.049992 -0.16627 -0.4634 -0.71937 0.86364 -0.15492 0.18068 -0.33077 0.042118 0.72129 -0.33624 -0.15355 0.8439 0.96362 0.25127 -0.2084
tourist 0.9726299999999999 1.0474 -0.25339 0.5099199999999999 -0.079486 -0.8799100000000001 -1.5079 -0.22671999999999998 1.08 0.048978 0.018205000000000002 -0.70902 0.9513 0.26561 0.72587 0.16435 0.43399 0.15015 -0.5252 0.39366999999999996 0.7118899999999999 -0.018511 -1.4629 1.0692 0.33531 -0.9920200000000001 -0.36039 0.14279 0.47913 0.2413 2.2199 0.69557 0.6512899999999999 0.074741 0.48241999999999996 0.48047 -0.18957000000000002 -0.22236 -0.9266 0.42077 -0.81675 0.7077600000000001 1.1882 -0.32197 0.12777 -0.79299 -0.78859 -0.26432 1.4907 -0.63973
workout -0.25066 0.50257 -0.9109 -0.18199 -0.48452 -1.2617 -0.067268 0.083284 0.58803 0.46748 -0.26186 -0.45788 -0.90179 0.48353999999999997 0.55761 -0.14226 -0.94476 0.6783600000000001 -0.31144 -0.5834600000000001 -0.39011999999999997 0.8074899999999999 -0.0052628 -0.4438 -0.51694 -0.02374 0.20756999999999998 0.47935 0.47833000000000003 0.10300000000000001 1.91 1.0417 -0.46515 0.6257 0.40016999999999997 0.9012 0.9775200000000001 0.8721899999999999 0.34489000000000003 -0.26318 -0.13774 -0.44605 -1.1607 1.2566 0.7639 -0.8305600000000001 1.3271 0.14868 -0.77262 1.4157
safe 0.82824 -0.38285 0.28854 -0.40331 0.55057 -0.58244 -0.5563100000000001 0.2089 1.1278 0.18073 0.27462 -0.27867 0.51273 0.01266 0.061183 1.0037 0.79961 -0.0035723 0.19964 -0.1948 -0.32393 0.67132 0.0057699 0.35096 -0.018524000000000002 -1.2916 -0.065977 0.36985999999999997 1.4406 0.12498 2.7895 0.060375 -0.72426 -0.35686999999999997 0.38117 0.012956 0.47403 0.23586 -0.22132 -0.3054 -0.058053 -0.20364000000000002 0.91986 0.32143 0.13541 -0.13329000000000002 -0.8208200000000001 0.082733 0.6005 0.5524
break -0.28705 -0.30243000000000003 -0.1783 -0.10987000000000001 -0.050858999999999994 0.12750999999999998 -0.17744000000000001 1.0594 -0.23847 0.42171000000000003 -0.2365 -0.42389 -0.9417 0.6845899999999999 0.52028 -0.041713 0.3572 -1.0290000000000001 -0.52059 -0.48544 0.17025 0.030926 -0.14727 0.03914 0.11438 -1.5402 0.64653 -0.32198000000000004 0.88346 -0.28024 3.2456 0.50162 -0.52768 0.5141100000000001 -0.20428 0.19845 0.12255 0.33671999999999996 0.16214 -0.45786000000000004 -0.21468 0.070855 -0.15447 0.30589 0.24846 0.13940999999999998 0.62953 -0.48261000000000004 -0.5468 -0.36780999999999997
band -0.77245 0.21816999999999998 -0.40049 -0.5281600000000001 -0.46087 0.58611 -1.5542 0.54177 -0.28788 0.92261 1.0989 0.25979 -0.32883 0.7963399999999999 -0.23009000000000002 -0.22104000000000001 0.45758000000000004 0.013640000000000001 -0.63597 -0.60617 -0.084844 0.2725 0.39152 0.63984 -0.49816000000000005 -0.17932 -1.4180000000000001 -0.029051999999999998 -0.074864 -0.60293 3.0585 -0.84752 0.10378 -0.15262 0.023318000000000002 0.095483 0.73301 -1.6128 -0.075601 -0.6826399999999999 0.07510900000000001 -0.56855 -1.6178 -1.0405 0.36041999999999996 -0.37588 0.027556999999999998 -1.2064 -1.3964 0.16595
bang -0.19097 -0.24309 0.57227 0.11215 -0.96411 -0.34254 1.1065 -0.25228 -0.9174200000000001 0.6855899999999999 -0.10985999999999999 0.05371 -0.8335 0.61985 0.52469 0.66082 0.75279 0.8699899999999999 -0.11765 0.24156999999999998 0.71231 -0.74424 0.21948 -0.10932 1.295 -0.76203 -1.7643 0.2435 -0.54619 -1.2565 1.5055 0.3205 0.11327000000000001 1.054 -0.49072 0.38708000000000004 0.8083100000000001 -0.34686999999999996 0.80771 0.5606800000000001 -0.99203 0.54875 -0.9234399999999999 -0.81724 0.6078399999999999 -0.72091 1.0316 -0.34071 0.35575 -0.086082
promis 1.123 0.090656 0.69253 -0.25633 -0.29896999999999996 -0.15184 0.19365 -0.71205 0.42523 0.83604 -0.36641999999999997 1.4097 0.6483899999999999 0.73365 -0.46986000000000006 -1.5352 -0.49482 0.13137000000000001 0.097751 -0.36527 -0.78738 -0.84673 -0.005145899999999999 -0.9676 0.55696 0.9226700000000001 0.85759 0.12836 -0.52045 -0.41617 -1.2487 -0.74064 -0.12455 -0.83831 -0.6168600000000001 -0.35822 0.65325 -0.09243 0.1073 0.53979 -0.038847 0.34405 -0.45893999999999996 0.20794 -0.47585 0.059329999999999994 0.068607 -0.033722 -0.058654 1.2759
echo 0.44187 0.72175 0.012795 -0.009009200000000002 -0.81685 -0.038004 -0.17375 0.47767 -0.61537 0.33516999999999997 -0.27694 -0.047788 0.3079 0.23528000000000002 -0.8862899999999999 0.1302 -0.20981999999999998 0.20218 -0.44472 -0.38661 0.11812 0.56722 0.098463 -0.16316 0.78488 -0.50232 -1.1352 1.1009 -0.3002 -0.21036999999999997 1.2594 -0.48478999999999994 0.49063 -0.75671 -0.51986 -0.50337 0.44442 -1.2856 0.051174000000000004 -0.15755 0.56628 -0.13988 -0.31481 -0.53979 0.17444 0.43578 0.041466 0.56213 0.010062999999999999 -0.018614
tourism 0.28602 0.54286 -0.59948 1.1769 0.0069245 -0.79151 -1.1003 -1.1512 1.1455 0.013484999999999999 0.35678000000000004 -0.10860999999999998 0.68414 0.13029000000000002 0.25326 0.38409 0.57917 0.094085 0.22956999999999997 0.61928 1.0403 -0.24678000000000003 -1.0218 -0.14704 0.17060999999999998 -0.60849 -0.28604 -0.51266 -0.2097 0.74889 2.5938 1.3578 0.35971 -0.27929 -0.37711 0.22680999999999998 -0.9633200000000001 0.035583 -0.10925 0.66461 -1.4367 0.55789 0.44921000000000005 -0.8014899999999999 0.33137 -0.35518 -1.0348 0.43888 1.3779 0.15491
bank 0.66488 -0.11391 0.6784399999999999 0.17951 0.6828 -0.47786999999999996 -0.30761 0.17489000000000002 -0.70512 -0.5502199999999999 0.1514 0.10214 -0.45063000000000003 -0.33069 0.056133 1.2271 0.55607 -0.68297 0.037364 0.7026600000000001 1.9093 -0.61483 -0.83329 -0.3023 -1.1118 -1.55 0.2604 0.22956999999999997 -1.0375 -0.31789 3.5091 -0.25871 1.0151 0.65927 -0.18231 -0.75859 -0.30927 -0.9167799999999999 1.0633 -0.66761 -0.37464000000000003 -0.29143 0.6560600000000001 -0.44642 -0.075495 -1.0552 -0.60501 0.73582 1.0139 -0.27749
kevlar -0.37412 0.08115 0.72215 0.066237 0.10504000000000001 0.6797 1.501 -1.9132 0.36033000000000004 0.28604 0.8037 0.22314 -0.52736 0.55837 -0.88684 0.29593 -0.42066000000000003 0.68324 0.055358000000000004 -1.2468 -0.7997 0.026064999999999998 -0.14047 -2.0507 -1.1209 -0.10167000000000001 -0.20831 1.1864 1.1551 -0.59327 -0.66645 0.007678 -0.52195 -0.14204 0.19515 0.72651 0.72926 0.53287 -0.49206000000000005 0.7015899999999999 0.17340999999999998 -0.303 1.5376 0.20835 0.29123000000000004 -0.61457 -0.26575 -0.9097799999999999 0.14947 -0.60102
alex -0.087274 0.8268200000000001 0.39323 1.1687 0.396 0.36623 -1.213 1.15 -0.5764 -0.13130999999999998 0.42827 1.0372 -0.88702 0.024187 0.71213 -0.82532 0.5025 -0.74863 -0.54027 -0.22279000000000002 -0.6016 -0.1045 -0.3018 0.41672 0.78871 -0.7389600000000001 1.0513 -0.27157 -0.22346 -0.35126999999999997 1.3139 -0.20594 0.70192 -0.35433000000000003 -0.38756999999999997 0.037094 -0.093418 0.23218000000000003 0.59483 -0.49263999999999997 0.66752 0.60905 -0.24938000000000002 -0.85551 0.23534000000000002 -0.5623199999999999 -0.092257 -0.83816 0.60722 0.74959
meat -0.09056499999999999 -1.2465 -1.3551 -0.68762 0.99372 0.87954 -0.37947 -0.5007699999999999 1.4837 -0.15743 0.28809 0.14668 1.7080000000000002 0.42588000000000004 0.8337600000000001 0.58712 0.36133000000000004 0.2549 -0.28392 -0.51432 0.8591200000000001 -1.0503 1.3135 0.43799999999999994 -0.37467 -1.2348 -0.039021 0.9260799999999999 1.0479 -0.5230600000000001 2.2526 -0.18499000000000002 0.059425 1.4299 -0.33945 0.24861999999999998 0.032415 0.9657 0.62287 -0.06179199999999999 0.10780999999999999 0.17035999999999998 0.44974 0.26616999999999996 1.6015 1.0875 -0.43432 0.5092899999999999 -0.23338000000000003 0.34138
capricorn -0.24331999999999998 0.1763 -0.12380999999999999 0.81143 -0.61887 -0.036487 -0.063192 -0.19931 0.9375899999999999 0.33086 0.47291000000000005 0.32746 0.47915 -0.13246 -0.42286999999999997 0.6857300000000001 -0.6629999999999999 0.23373000000000002 -0.63905 1.5244 0.026735000000000002 0.27716999999999997 1.4359 -0.24176999999999998 -0.56491 0.47503 -0.71623 0.45616999999999996 0.41413 -1.1969 -0.52733 -0.19768 -0.50274 0.14276 0.62883 -0.48703 -0.27329000000000003 -1.5768 0.64662 -0.08800000000000001 -0.9711799999999999 -0.71619 -0.099634 -0.82989 -1.0755 0.19533 0.7249899999999999 -0.19509 -0.07983 -0.20938
choir -0.020259 1.1125 -1.7236 -1.6136 0.39023 0.039137 0.006503 0.44808000000000003 -0.40519 0.50457 0.41663 -0.29375999999999997 0.34249 0.76589 -0.5844600000000001 -0.735 -0.37475 0.6086199999999999 -0.13308 -0.28970999999999997 0.29915 0.63169 -0.5169100000000001 0.9017799999999999 -0.35309 0.20169 -0.44328 -0.073173 -2.2217 -0.9265399999999999 2.0318 0.21639 0.60798 -0.16305999999999998 -0.032663 0.21943000000000001 1.5764 -0.4979 0.12622 0.096439 -0.013568 -0.43082 -1.1781 -0.30956999999999996 0.15946 0.48818999999999996 0.16367 -1.2309 -1.8312 -0.11210999999999999
neutron 0.5755 1.0056 1.5079 -0.13799 0.23879 0.70112 0.74417 -0.2006 0.83568 1.5638 0.82437 0.091343 0.17625 1.8179 -0.70548 0.66218 0.75908 0.45785 -0.9569 -0.4965 -0.10042000000000001 -0.34193 0.7208100000000001 -0.21327 0.33259 0.30851999999999996 0.18980999999999998 0.33918000000000004 0.6543 0.78063 0.5141899999999999 -1.0256 -0.43583 -1.0121 0.55013 0.68561 0.43204 0.032534 0.5908899999999999 0.8792399999999999 0.35536 0.70427 -1.3676 -0.11307 0.69342 -0.14802 0.9819899999999999 0.30353 -0.7467 -0.15469000000000002
patanjali 0.070823 -0.58729 -0.67379 0.43582 -0.1652 -0.9744200000000001 1.5329 -0.25423 0.95291 0.8334299999999999 0.06440499999999999 0.44978 -0.33783 -0.8460200000000001 0.013763999999999998 0.036999000000000004 -0.63749 0.67195 0.48315 0.11372 -0.21538000000000002 0.41325 0.35093 -0.007359 0.8553799999999999 0.73056 -0.38706 -0.7214 -0.9087 0.30178 -0.13439 -1.2434 0.16191 1.1189 0.0063482 0.040570999999999996 -0.05536699999999999 0.27034 -0.55658 0.31288 0.9771299999999999 -0.34662 -0.9766100000000001 1.3293 0.61643 0.34157 1.2647 -0.37312 -1.689 -0.63536
went -0.32756 -0.21984 0.099508 -0.24301 0.22359 -0.25579 -1.5678 0.71203 -0.60978 -0.14974 -0.1801 -0.2335 -0.9344399999999999 0.073475 0.65635 -0.20076 -0.2858 -0.30971 -1.0596 0.08778899999999999 0.37395 0.45275 0.29004 -0.1191 0.24409 -1.6391 0.25765 -0.20781999999999998 0.29575999999999997 -0.67762 2.7144 0.43182 -0.23828000000000002 0.045420999999999996 0.35536 0.022494999999999998 0.31211 0.6288600000000001 0.42454 -0.017082 -0.53178 -0.12794 -0.23536999999999997 0.019563 -0.07821900000000001 -0.052478 -0.085261 -0.61849 0.014237999999999999 -0.18098
dhp -0.12342 -0.53035 -0.086632 -0.42701999999999996 -0.33789 0.11492000000000001 0.74156 -0.12775 0.21033000000000002 0.23133 0.10567 0.023486 0.43623 0.35575999999999997 0.17248 0.15562 0.46282 0.30186 0.2999 0.15707000000000002 -0.60674 -0.82225 0.052769 0.51631 0.1051 1.0129 0.71013 -0.22615 -0.48344 0.22078000000000003 -1.0016 -0.056327999999999996 -0.24981 0.44846 -0.65222 0.026477999999999998 0.041297 -0.17987999999999998 -0.17917 -0.42357 0.30130999999999997 -0.48628999999999994 -0.57095 0.6630699999999999 -0.06399500000000001 -0.24389 0.52203 0.12561 -0.34542 0.18193
375 0.44705 -0.077265 0.9556 -0.84731 0.16676 -0.27976 0.8616 -0.079974 0.085982 -0.43643999999999994 -1.1181 -0.94844 0.7094 -0.36859000000000003 0.04802 -0.43914 0.20119 0.7519600000000001 -1.0113 -0.12215 0.76768 0.093125 0.85716 -0.16680999999999999 -0.21831 0.27521 0.33199 -0.12580999999999998 -0.20876999999999998 -0.0296 1.1661 0.29761 0.20278 1.4194 0.5271399999999999 -0.14962999999999999 0.20574 0.55013 1.0181 0.15764 0.27623000000000003 0.20528000000000002 1.2488 0.44146 -1.2359 1.135 0.17782 0.473 -0.70649 -0.30349
side 0.20711999999999997 0.45525 -0.59307 -0.37613 0.082234 0.22413000000000002 -0.31312 0.71027 -0.6197600000000001 -0.49796 0.13477 0.0056405 -0.7704300000000001 -0.19784000000000002 -0.7003199999999999 0.23176999999999998 0.815 -0.061392999999999996 -0.73146 -0.40748 -0.52122 0.052144 0.010133 0.68707 -0.21358000000000002 -1.5289 0.53722 1.1833 -0.022483000000000003 -0.55043 3.5116 0.5666 0.25898000000000004 -0.065076 0.34410999999999997 0.40765999999999997 0.25558000000000003 0.43896 -0.22385 -0.82314 0.51137 -0.13294 -0.16608 -0.23840999999999998 -0.12115999999999999 0.43583999999999995 0.013572 -0.14499 0.5076 -0.75084
bone 0.5899300000000001 0.024354 -0.21234 -0.14964 0.45669 1.7025 0.41118999999999994 0.081984 1.3004 0.10015 0.59465 -0.15154 0.12163 0.13934000000000002 -0.067985 0.88715 0.09913200000000001 -0.8983700000000001 0.11707999999999999 0.6100300000000001 -0.96045 -0.62758 0.62534 -0.7321 -0.1465 -0.42601999999999995 -0.52494 0.40415999999999996 0.22937 -0.9546399999999999 2.5504 -0.75146 0.9920700000000001 0.49036 -0.31481 0.9996299999999999 0.9218299999999999 0.7078 1.3364 -0.5030899999999999 -0.12885 -0.29798 -0.8124600000000001 0.53646 1.6157 -0.080678 0.9350200000000001 -0.46979 -0.8890600000000001 -0.25908000000000003
mean -0.067512 0.29494000000000004 0.20235 -0.59841 0.43585 -0.0032223 0.43758 -0.1124 -0.20145 0.42289 -0.0985 0.1408 -0.058553999999999995 -0.27835 0.8476799999999999 0.53055 0.55419 -0.067955 -0.096425 -0.73339 -0.41117 -0.4301 0.29693 0.16367 0.48378999999999994 -1.3559 -0.68909 0.34702 1.1119 0.034287 3.0064 0.60957 -0.24456999999999998 -0.11537 -0.23676 -0.61456 0.20144 -0.20736 -0.07181900000000001 -0.19848 -0.47481999999999996 -0.0034086999999999998 0.19635 0.65044 -0.45632 -0.26454 0.17555 0.33774 0.031319 0.68001
armi 0.38792 -0.58672 0.13505 0.34176999999999996 -1.4136 -0.72134 0.47107 -0.30693000000000004 0.54702 0.77386 0.79737 0.5331899999999999 -0.007632300000000001 -0.65823 0.35913 -0.15836 -0.27491 0.64515 -0.0046173 -0.37882 -0.5996199999999999 -0.4799 -0.57082 0.5222600000000001 0.21139000000000002 0.47773999999999994 -0.23425 0.095 -0.42311000000000004 -0.029194 -1.8404 -0.17632 -0.38288 0.75472 -0.45087 -0.24574000000000001 0.77393 0.033964 -0.17551 -0.032076 1.1059999999999999 -0.60929 0.31201 0.5293899999999999 0.58501 0.058626 0.087939 -0.42765 0.62669 -0.3509
391 0.10114 -0.59658 1.0668 -0.132 0.43413 0.14731 0.64037 -0.5806100000000001 -0.12351 -0.51742 -1.0436 -0.61528 0.32321 -0.81117 0.020707 -0.8174899999999999 -0.53796 0.51661 -0.48041999999999996 0.36545 0.16963 -0.34704 0.63679 -0.33902 0.14236 0.67407 0.19868 -0.47386000000000006 -0.57248 -0.27497 -0.044201 0.26134 0.8655299999999999 1.102 0.6463 -0.17484 0.7359 -0.08101599999999999 -0.13602 0.52073 -0.36099000000000003 -0.60206 0.74045 0.50111 -1.0194 0.77956 -0.53 0.30482 0.36372 -0.36053
forgot -0.011328 -0.50856 0.32037 -0.61331 0.55245 -0.38325 -0.51458 0.8116899999999999 -0.4503 0.12451 -0.08945499999999999 0.43917 -0.010453 -0.22960999999999998 1.0368 0.53068 -0.44683 0.20214000000000001 0.55442 -0.2605 0.065993 0.49287 0.25629 0.29886 1.0983 -1.1411 -0.98506 0.31894 1.1684 -1.0997 0.4475 0.40086 -0.39986 0.3275 -0.18675999999999998 0.13785999999999998 0.23310999999999998 0.37196999999999997 0.36295 -0.05349299999999999 0.20549 -0.16543 -0.34251 0.49128 -0.32193 0.014065000000000001 0.0026046999999999997 -0.015625999999999998 -0.0594 0.12477
extract 0.63542 -0.09842100000000001 0.435 -0.16126 0.36449000000000004 0.89541 0.42103999999999997 0.71344 0.6893600000000001 1.2383 0.25834 0.36551 1.0392 -0.72104 -0.23314000000000001 -0.073157 0.3775 -0.10114 0.46547 -0.6792100000000001 0.42281 -0.35067 1.5474 -0.64495 -0.24079 -0.43988999999999995 -0.029729000000000002 -0.095074 1.2002 -0.30443000000000003 1.8297 -0.90312 -1.0903 0.23058 0.31801 0.25656 -0.73182 0.18533 0.93165 -0.77359 1.2615 -0.9210799999999999 0.17526 -0.056973 0.9084200000000001 -0.012924000000000001 0.19988 0.67676 -0.31293000000000004 -0.76832
hostel 0.37771 0.59105 -0.106 -1.2442 -0.019481000000000002 -0.74892 -0.23376999999999998 -0.08318500000000001 0.054712000000000004 -0.32411 -0.22082 -0.7509999999999999 0.1873 0.23088000000000003 0.41236999999999996 0.19831 0.36846 1.4868 0.27875 0.81711 0.5111899999999999 1.0758 -1.1533 1.4879 -0.5627 0.052211 0.46631000000000006 -0.16207 -0.46011 0.069798 0.7225 0.14981 -0.099685 -0.010225 0.53906 1.385 1.1731 -0.9214600000000001 0.54635 0.039225 -0.38242 -0.76567 0.22453 0.5988399999999999 0.45148999999999995 -0.29162 -0.29366 -0.62511 0.5213 -0.35454
depress -1.0709 -0.8505799999999999 1.204 -0.74763 -0.019918 -0.27593 0.76556 0.65594 0.42911000000000005 0.7795 0.6953199999999999 -0.089501 0.49933 -0.41581 -0.091581 1.3333 0.018982 -0.82816 0.6100800000000001 -0.97829 0.79578 -1.5115 -0.30426 -0.2518 -0.13347 0.05873099999999999 -0.39894 -0.49996 1.4012 0.83125 0.08488899999999999 1.4336 0.6209600000000001 0.13021 -0.13607 -0.83393 -0.67714 -0.2955 0.19743 -0.8989799999999999 -0.83868 -0.43088000000000004 0.20935 -0.272 0.65737 -0.34117 0.44995 -0.17448 0.5450699999999999 0.42862
